{"learner":{"attributes":{"scikit_learn":"{\"_estimator_type\": \"regressor\"}"},"feature_names":[],"feature_types":[],"gradient_booster":{"model":{"gbtree_model_param":{"num_parallel_tree":"1","num_trees":"100"},"iteration_indptr":[0,1,2,3,4,5,6,7,8,9,10,11,12,13,14,15,16,17,18,19,20,21,22,23,24,25,26,27,28,29,30,31,32,33,34,35,36,37,38,39,40,41,42,43,44,45,46,47,48,49,50,51,52,53,54,55,56,57,58,59,60,61,62,63,64,65,66,67,68,69,70,71,72,73,74,75,76,77,78,79,80,81,82,83,84,85,86,87,88,89,90,91,92,93,94,95,96,97,98,99,100],"tree_info":[0,0,0,0,0,0,0,0,0,0,0,0,0,0,0,0,0,0,0,0,0,0,0,0,0,0,0,0,0,0,0,0,0,0,0,0,0,0,0,0,0,0,0,0,0,0,0,0,0,0,0,0,0,0,0,0,0,0,0,0,0,0,0,0,0,0,0,0,0,0,0,0,0,0,0,0,0,0,0,0,0,0,0,0,0,0,0,0,0,0,0,0,0,0,0,0,0,0,0,0],"trees":[{"base_weights":[-0E0,9.827585E-1,-3.5867086E-1,4.923739E-1,-7.321826E-2],"categories":[],"categories_nodes":[],"categories_segments":[],"categories_sizes":[],"default_left":[0,0,0,0,0],"id":0,"left_children":[1,-1,3,-1,-1],"loss_changes":[2.5026575E2,0E0,1.3486014E2,0E0,0E0],"parents":[2147483647,0,0,2,2],"right_children":[2,-1,4,-1,-1],"split_conditions":[4.0073785E-1,9.827585E-1,-7.4727654E-1,4.923739E-1,-7.321826E-2],"split_indices":[8,0,673,0,0],"split_type":[0,0,0,0,0],"sum_hessian":[7E1,2E0,6.8E1,4E0,6.4E1],"tree_param":{"num_deleted":"0","num_feature":"1024","num_nodes":"5","size_leaf_vector":"1"}},{"base_weights":[3.5598278E-3,9.041378E-1,-3.1901428E-1,-6.219848E-2,5.253579E-1],"categories":[],"categories_nodes":[],"categories_segments":[],"categories_sizes":[],"default_left":[0,0,0,0,0],"id":1,"left_children":[1,-1,3,-1,-1],"loss_changes":[2.1133665E2,0E0,1.14968735E2,0E0,0E0],"parents":[2147483647,0,0,2,2],"right_children":[2,-1,4,-1,-1],"split_conditions":[4.0073785E-1,9.041378E-1,1.137316E0,-6.219848E-2,5.253579E-1],"split_indices":[8,0,992,0,0],"split_type":[0,0,0,0,0],"sum_hessian":[7E1,2E0,6.8E1,6.5E1,3E0],"tree_param":{"num_deleted":"0","num_feature":"1024","num_nodes":"5","size_leaf_vector":"1"}},{"base_weights":[1.29009085E-2,6.1762033E0,-3.9674285E-1,2.5990978E-1,8.318068E-1,4.2802244E-1,-7.383105E-2],"categories":[],"categories_nodes":[],"categories_segments":[],"categories_sizes":[],"default_left":[0,0,0,0,0,0,0],"id":2,"left_children":[1,3,5,-1,-1,-1,-1],"loss_changes":[1.8211037E2,1.8209229E1,1.06042915E2,0E0,0E0,0E0,0E0],"parents":[2147483647,0,0,1,1,2,2],"right_children":[2,4,6,-1,-1,-1,-1],"split_conditions":[-1.0546724E0,-1.0122849E0,-7.4727654E-1,2.5990978E-1,8.318068E-1,4.2802244E-1,-7.383105E-2],"split_indices":[849,0,673,0,0,0,0],"split_type":[0,0,0,0,0,0,0],"sum_hessian":[7E1,4E0,6.6E1,2E0,2E0,4E0,6.2E1],"tree_param":{"num_deleted":"0","num_feature":"1024","num_nodes":"7","size_leaf_vector":"1"}},{"base_weights":[2.257473E-2,5.6909957E0,-3.5365358E-1,2.3911698E-1,7.652623E-1,-6.306646E-2,4.579783E-1],"categories":[],"categories_nodes":[],"categories_segments":[],"categories_sizes":[],"default_left":[0,0,0,0,0,0,0],"id":3,"left_children":[1,3,5,-1,-1,-1,-1],"loss_changes":[1.5402473E2,1.4957367E1,9.034958E1,0E0,0E0,0E0,0E0],"parents":[2147483647,0,0,1,1,2,2],"right_children":[2,4,6,-1,-1,-1,-1],"split_conditions":[-1.0546724E0,-1.0122849E0,1.137316E0,2.3911698E-1,7.652623E-1,-6.306646E-2,4.579783E-1],"split_indices":[849,0,992,0,0,0,0],"split_type":[0,0,0,0,0,0,0],"sum_hessian":[7E1,4E0,6.6E1,2E0,2E0,6.3E1,3E0],"tree_param":{"num_deleted":"0","num_feature":"1024","num_nodes":"7","size_leaf_vector":"1"}},{"base_weights":[3.0950548E-2,5.244605E0,-3.1456706E-1,2.1998763E-1,7.040413E-1,-1.0171342E-1,1.3792393E-1],"categories":[],"categories_nodes":[],"categories_segments":[],"categories_sizes":[],"default_left":[0,0,0,0,0,0,0],"id":4,"left_children":[1,3,5,-1,-1,-1,-1],"loss_changes":[1.3028926E2,1.2240707E1,7.965622E1,0E0,0E0,0E0,0E0],"parents":[2147483647,0,0,1,1,2,2],"right_children":[2,4,6,-1,-1,-1,-1],"split_conditions":[-1.0546724E0,-1.0122849E0,4.2504287E-1,2.1998763E-1,7.040413E-1,-1.0171342E-1,1.3792393E-1],"split_indices":[849,0,846,0,0,0,0],"split_type":[0,0,0,0,0,0,0],"sum_hessian":[7E1,4E0,6.6E1,2E0,2E0,4.7E1,1.9E1],"tree_param":{"num_deleted":"0","num_feature":"1024","num_nodes":"7","size_leaf_vector":"1"}},{"base_weights":[3.537493E-2,-3.2371697E-1,4.399526E0,-6.8190925E-2,2.9030985E-1,-1.4389889E-2,5.5362767E-1],"categories":[],"categories_nodes":[],"categories_segments":[],"categories_sizes":[],"default_left":[0,0,0,0,0,0,0],"id":5,"left_children":[1,3,5,-1,-1,-1,-1],"loss_changes":[1.1323277E2,7.5585464E1,3.150058E1,0E0,0E0,0E0,0E0],"parents":[2147483647,0,0,1,1,2,2],"right_children":[2,4,6,-1,-1,-1,-1],"split_conditions":[-1.218394E0,8.5262734E-1,-1.3326169E0,-6.8190925E-2,2.9030985E-1,-1.4389889E-2,5.5362767E-1],"split_indices":[191,996,0,0,0,0,0],"split_type":[0,0,0,0,0,0,0],"sum_hessian":[7E1,6.5E1,5E0,5.9E1,6E0,1E0,4E0],"tree_param":{"num_deleted":"0","num_feature":"1024","num_nodes":"7","size_leaf_vector":"1"}},{"base_weights":[3.6527798E-2,4.538509E0,-2.608734E-1,1.9350384E-1,6.034278E-1,3.423258E-1,-5.3204387E-2],"categories":[],"categories_nodes":[],"categories_segments":[],"categories_sizes":[],"default_left":[0,0,0,0,0,0,0],"id":6,"left_children":[1,3,5,-1,-1,-1,-1],"loss_changes":[9.712287E1,7.700905E0,6.59004E1,0E0,0E0,0E0,0E0],"parents":[2147483647,0,0,1,1,2,2],"right_children":[2,4,6,-1,-1,-1,-1],"split_conditions":[-1.0546724E0,-1.0122849E0,-7.4727654E-1,1.9350384E-1,6.034278E-1,3.423258E-1,-5.3204387E-2],"split_indices":[849,0,673,0,0,0,0],"split_type":[0,0,0,0,0,0,0],"sum_hessian":[7E1,4E0,6.6E1,2E0,2E0,4E0,6.2E1],"tree_param":{"num_deleted":"0","num_feature":"1024","num_nodes":"7","size_leaf_vector":"1"}},{"base_weights":[4.1286666E-2,-2.677759E-1,3.8090963E0,1.4222929E-1,-8.3852835E-2,-9.883603E-3,4.7996187E-1],"categories":[],"categories_nodes":[],"categories_segments":[],"categories_sizes":[],"default_left":[0,0,0,0,0,0,0],"id":7,"left_children":[1,3,5,-1,-1,-1,-1],"loss_changes":[8.437713E1,6.348644E1,2.3877502E1,0E0,0E0,0E0,0E0],"parents":[2147483647,0,0,1,1,2,2],"right_children":[2,4,6,-1,-1,-1,-1],"split_conditions":[-1.218394E0,-7.004443E-1,-1.3326169E0,1.4222929E-1,-8.3852835E-2,-9.883603E-3,4.7996187E-1],"split_indices":[191,599,0,0,0,0,0],"split_type":[0,0,0,0,0,0,0],"sum_hessian":[7E1,6.5E1,5E0,1.6E1,4.9E1,1E0,4E0],"tree_param":{"num_deleted":"0","num_feature":"1024","num_nodes":"7","size_leaf_vector":"1"}},{"base_weights":[4.019663E-2,3.9077876E0,-2.1430348E-1,1.666452E-1,5.1675653E-1,-4.318449E-2,3.6202773E-1],"categories":[],"categories_nodes":[],"categories_segments":[],"categories_sizes":[],"default_left":[0,0,0,0,0,0,0],"id":8,"left_children":[1,3,5,-1,-1,-1,-1],"loss_changes":[7.1658775E1,4.9833755E0,5.4660465E1,0E0,0E0,0E0,0E0],"parents":[2147483647,0,0,1,1,2,2],"right_children":[2,4,6,-1,-1,-1,-1],"split_conditions":[-1.0546724E0,-1.0122849E0,1.137316E0,1.666452E-1,5.1675653E-1,-4.318449E-2,3.6202773E-1],"split_indices":[849,0,992,0,0,0,0],"split_type":[0,0,0,0,0,0,0],"sum_hessian":[7E1,4E0,6.6E1,2E0,2E0,6.3E1,3E0],"tree_param":{"num_deleted":"0","num_feature":"1024","num_nodes":"7","size_leaf_vector":"1"}},{"base_weights":[4.3994345E-2,-2.2476774E-1,3.3316162E0,-5.9462883E-2,1.6932963E-1,1.6624826E-1,4.8020798E-1],"categories":[],"categories_nodes":[],"categories_segments":[],"categories_sizes":[],"default_left":[0,0,0,0,0,0,0],"id":9,"left_children":[1,3,5,-1,-1,-1,-1],"loss_changes":[6.42208E1,4.6420937E1,6.275234E0,0E0,0E0,0E0,0E0],"parents":[2147483647,0,0,1,1,2,2],"right_children":[2,4,6,-1,-1,-1,-1],"split_conditions":[-5.4405683E-1,-7.8926593E-1,-5.174441E-1,-5.9462883E-2,1.6932963E-1,1.6624826E-1,4.8020798E-1],"split_indices":[215,830,5,0,0,0,0],"split_type":[0,0,0,0,0,0,0],"sum_hessian":[7E1,6.5E1,5E0,5.5E1,1E1,3E0,2E0],"tree_param":{"num_deleted":"0","num_feature":"1024","num_nodes":"7","size_leaf_vector":"1"}},{"base_weights":[4.5668107E-2,-5.615113E-1,1.3756844E0,2.798937E-1,-9.0625875E-2,3.6683285E-1,1.8970547E-2],"categories":[],"categories_nodes":[],"categories_segments":[],"categories_sizes":[],"default_left":[0,0,0,0,0,0,0],"id":10,"left_children":[1,3,5,-1,-1,-1,-1],"loss_changes":[5.772619E1,5.6509476E1,5.890115E1,0E0,0E0,0E0,0E0],"parents":[2147483647,0,0,1,1,2,2],"right_children":[2,4,6,-1,-1,-1,-1],"split_conditions":[2.3897183E-1,-8.5080785E-1,1.4549901E0,2.798937E-1,-9.0625875E-2,3.6683285E-1,1.8970547E-2],"split_indices":[812,453,819,0,0,0,0],"split_type":[0,0,0,0,0,0,0],"sum_hessian":[7E1,4.8E1,2.2E1,4E0,4.4E1,7E0,1.5E1],"tree_param":{"num_deleted":"0","num_feature":"1024","num_nodes":"7","size_leaf_vector":"1"}},{"base_weights":[4.588903E-2,-1.9138181E-1,2.9583066E0,1.244586E-1,-5.6833178E-2,1.5350369E-1,4.1592225E-1],"categories":[],"categories_nodes":[],"categories_segments":[],"categories_sizes":[],"default_left":[0,0,0,0,0,0,0],"id":11,"left_children":[1,3,5,-1,-1,-1,-1],"loss_changes":[5.0384277E1,3.546991E1,3.3613396E0,0E0,0E0,0E0,0E0],"parents":[2147483647,0,0,1,1,2,2],"right_children":[2,4,6,-1,-1,-1,-1],"split_conditions":[-5.4405683E-1,3.595931E-1,-5.174441E-1,1.244586E-1,-5.6833178E-2,1.5350369E-1,4.1592225E-1],"split_indices":[215,286,5,0,0,0,0],"split_type":[0,0,0,0,0,0,0],"sum_hessian":[7E1,6.5E1,5E0,1.3E1,5.2E1,3E0,2E0],"tree_param":{"num_deleted":"0","num_feature":"1024","num_nodes":"7","size_leaf_vector":"1"}},{"base_weights":[4.6527438E-2,-4.9011895E-1,1.2244868E0,2.3747428E-1,-7.855531E-2,1.5834743E-2,3.2795426E-1],"categories":[],"categories_nodes":[],"categories_segments":[],"categories_sizes":[],"default_left":[0,0,0,0,0,0,0],"id":12,"left_children":[1,3,5,-1,-1,-1,-1],"loss_changes":[4.5233665E1,4.1187477E1,4.731836E1,0E0,0E0,0E0,0E0],"parents":[2147483647,0,0,1,1,2,2],"right_children":[2,4,6,-1,-1,-1,-1],"split_conditions":[2.3897183E-1,-8.5080785E-1,3.1707594E-1,2.3747428E-1,-7.855531E-2,1.5834743E-2,3.2795426E-1],"split_indices":[812,453,477,0,0,0,0],"split_type":[0,0,0,0,0,0,0],"sum_hessian":[7E1,4.8E1,2.2E1,4E0,4.4E1,1.5E1,7E0],"tree_param":{"num_deleted":"0","num_feature":"1024","num_nodes":"7","size_leaf_vector":"1"}},{"base_weights":[4.614923E-2,-1.6345444E-1,2.6290522E0,-6.024399E-2,7.904755E-2,1.04466595E-1,3.2423207E-1],"categories":[],"categories_nodes":[],"categories_segments":[],"categories_sizes":[],"default_left":[0,0,0,0,0,0,0],"id":13,"left_children":[1,3,5,-1,-1,-1,-1],"loss_changes":[3.961538E1,2.7572958E1,1.5070305E0,0E0,0E0,0E0,0E0],"parents":[2147483647,0,0,1,1,2,2],"right_children":[2,4,6,-1,-1,-1,-1],"split_conditions":[-5.4405683E-1,2.3486812E-1,-3.2172412E-1,-6.024399E-2,7.904755E-2,1.04466595E-1,3.2423207E-1],"split_indices":[215,812,15,0,0,0,0],"split_type":[0,0,0,0,0,0,0],"sum_hessian":[7E1,6.5E1,5E0,4.5E1,2E1,2E0,3E0],"tree_param":{"num_deleted":"0","num_feature":"1024","num_nodes":"7","size_leaf_vector":"1"}},{"base_weights":[4.541731E-2,3.1801808E-1,-1.1005501E-1,-5.8791466E-2,8.3650686E-2],"categories":[],"categories_nodes":[],"categories_segments":[],"categories_sizes":[],"default_left":[0,0,0,0,0],"id":14,"left_children":[1,-1,3,-1,-1],"loss_changes":[3.606957E1,0E0,3.0653452E1,0E0,0E0],"parents":[2147483647,0,0,2,2],"right_children":[2,-1,4,-1,-1],"split_conditions":[6.049822E-1,3.1801808E-1,3.9586285E-1,-5.8791466E-2,8.3650686E-2],"split_indices":[534,0,846,0,0],"split_type":[0,0,0,0,0],"sum_hessian":[7E1,3E0,6.7E1,4.5E1,2.2E1],"tree_param":{"num_deleted":"0","num_feature":"1024","num_nodes":"5","size_leaf_vector":"1"}},{"base_weights":[4.330738E-2,-2.417633E-1,1.5598336E0,4.8571374E-2,-7.5450435E-2,3.1288785E-1,-3.45386E-2],"categories":[],"categories_nodes":[],"categories_segments":[],"categories_sizes":[],"default_left":[0,0,0,0,0,0,0],"id":15,"left_children":[1,3,5,-1,-1,-1,-1],"loss_changes":[3.1325949E1,2.2511566E1,3.630989E1,0E0,0E0,0E0,0E0],"parents":[2147483647,0,0,1,1,2,2],"right_children":[2,4,6,-1,-1,-1,-1],"split_conditions":[3.837558E-2,1.4808959E0,2.0986457E-1,4.8571374E-2,-7.5450435E-2,3.1288785E-1,-3.45386E-2],"split_indices":[170,388,359,0,0,0,0],"split_type":[0,0,0,0,0,0,0],"sum_hessian":[7E1,5.9E1,1.1E1,2.4E1,3.5E1,6E0,5E0],"tree_param":{"num_deleted":"0","num_feature":"1024","num_nodes":"7","size_leaf_vector":"1"}},{"base_weights":[4.0050883E-2,-2.5327253E-1,1.324945E0,9.038048E-2,-5.474608E-2,2.800102E-1,-0E0],"categories":[],"categories_nodes":[],"categories_segments":[],"categories_sizes":[],"default_left":[0,0,0,0,0,0,0],"id":16,"left_children":[1,3,5,-1,-1,-1,-1],"loss_changes":[2.7274334E1,1.9642143E1,2.7264729E1,0E0,0E0,0E0,0E0],"parents":[2147483647,0,0,1,1,2,2],"right_children":[2,4,6,-1,-1,-1,-1],"split_conditions":[6.607663E-1,1.2536652E0,-2.608289E-1,9.038048E-2,-5.474608E-2,2.800102E-1,-0E0],"split_indices":[996,370,835,0,0,0,0],"split_type":[0,0,0,0,0,0,0],"sum_hessian":[7E1,5.7E1,1.3E1,1.1E1,4.6E1,6E0,7E0],"tree_param":{"num_deleted":"0","num_feature":"1024","num_nodes":"7","size_leaf_vector":"1"}},{"base_weights":[3.7839126E-2,2.3201981E-1,-1.09371915E-1,8.5979685E-2,-4.0971037E-2],"categories":[],"categories_nodes":[],"categories_segments":[],"categories_sizes":[],"default_left":[0,0,0,0,0],"id":17,"left_children":[1,-1,3,-1,-1],"loss_changes":[2.4919477E1,0E0,1.930782E1,0E0,0E0],"parents":[2147483647,0,0,2,2],"right_children":[2,-1,4,-1,-1],"split_conditions":[-1.0546724E0,2.3201981E-1,1.2092893E-1,8.5979685E-2,-4.0971037E-2],"split_indices":[849,0,1005,0,0],"split_type":[0,0,0,0,0],"sum_hessian":[7E1,4E0,6.6E1,1.5E1,5.1E1],"tree_param":{"num_deleted":"0","num_feature":"1024","num_nodes":"5","size_leaf_vector":"1"}},{"base_weights":[3.6019977E-2,-1.1890145E-1,1.9686279E0,-4.06929E-2,9.6857235E-2,-0E0,2.4888384E-1],"categories":[],"categories_nodes":[],"categories_segments":[],"categories_sizes":[],"default_left":[0,0,0,0,0,0,0],"id":18,"left_children":[1,3,5,-1,-1,-1,-1],"loss_changes":[2.2149769E1,2.0432316E1,6.5592003E0,0E0,0E0,0E0,0E0],"parents":[2147483647,0,0,1,1,2,2],"right_children":[2,4,6,-1,-1,-1,-1],"split_conditions":[-1.218394E0,1.4365461E0,-1.3326169E0,-4.06929E-2,9.6857235E-2,-0E0,2.4888384E-1],"split_indices":[191,374,0,0,0,0,0],"split_type":[0,0,0,0,0,0,0],"sum_hessian":[7E1,6.5E1,5E0,5.2E1,1.3E1,1E0,4E0],"tree_param":{"num_deleted":"0","num_feature":"1024","num_nodes":"7","size_leaf_vector":"1"}},{"base_weights":[3.405333E-2,4.7606388E-1,-6.0813874E-1,1.1647277E-1,-2.6700778E-2,-0E0,-8.6529516E-2],"categories":[],"categories_nodes":[],"categories_segments":[],"categories_sizes":[],"default_left":[0,0,0,0,0,0,0],"id":19,"left_children":[1,3,5,-1,-1,-1,-1],"loss_changes":[2.0090544E1,2.2352737E1,4.8088503E0,0E0,0E0,0E0,0E0],"parents":[2147483647,0,0,1,1,2,2],"right_children":[2,4,6,-1,-1,-1,-1],"split_conditions":[5.002169E-1,5.433295E-1,1.4279892E-1,1.1647277E-1,-2.6700778E-2,-0E0,-8.6529516E-2],"split_indices":[166,1005,391,0,0,0,0],"split_type":[0,0,0,0,0,0,0],"sum_hessian":[7E1,4.2E1,2.8E1,2.2E1,2E1,8E0,2E1],"tree_param":{"num_deleted":"0","num_feature":"1024","num_nodes":"7","size_leaf_vector":"1"}},{"base_weights":[2.9829267E-2,-1.893837E-1,1.2061994E0,3.7459094E-2,-5.3857666E-2,2.3781446E-1,-1.9757198E-2],"categories":[],"categories_nodes":[],"categories_segments":[],"categories_sizes":[],"default_left":[0,0,0,0,0,0,0],"id":20,"left_children":[1,3,5,-1,-1,-1,-1],"loss_changes":[1.8802855E1,1.19005575E1,2.024436E1,0E0,0E0,0E0,0E0],"parents":[2147483647,0,0,1,1,2,2],"right_children":[2,4,6,-1,-1,-1,-1],"split_conditions":[3.837558E-2,1.4703445E0,2.0986457E-1,3.7459094E-2,-5.3857666E-2,2.3781446E-1,-1.9757198E-2],"split_indices":[170,388,359,0,0,0,0],"split_type":[0,0,0,0,0,0,0],"sum_hessian":[7E1,5.9E1,1.1E1,2.2E1,3.7E1,6E0,5E0],"tree_param":{"num_deleted":"0","num_feature":"1024","num_nodes":"7","size_leaf_vector":"1"}},{"base_weights":[2.7567305E-2,-3.156613E-1,6.9884676E-1,1.4341778E-1,-5.0898947E-2,1.9763492E-1,1.0280727E-2],"categories":[],"categories_nodes":[],"categories_segments":[],"categories_sizes":[],"default_left":[0,0,0,0,0,0,0],"id":21,"left_children":[1,3,5,-1,-1,-1,-1],"loss_changes":[1.6545256E1,1.5633024E1,1.7514154E1,0E0,0E0,0E0,0E0],"parents":[2147483647,0,0,1,1,2,2],"right_children":[2,4,6,-1,-1,-1,-1],"split_conditions":[2.2685143E-1,-8.5080785E-1,1.4549901E0,1.4341778E-1,-5.0898947E-2,1.9763492E-1,1.0280727E-2],"split_indices":[812,453,819,0,0,0,0],"split_type":[0,0,0,0,0,0,0],"sum_hessian":[7E1,4.6E1,2.4E1,4E0,4.2E1,7E0,1.7E1],"tree_param":{"num_deleted":"0","num_feature":"1024","num_nodes":"7","size_leaf_vector":"1"}},{"base_weights":[2.7650552E-2,-9.5972724E-2,1.5882869E-1,4.8211735E-2,-3.6636528E-2],"categories":[],"categories_nodes":[],"categories_segments":[],"categories_sizes":[],"default_left":[0,0,0,0,0],"id":22,"left_children":[1,3,-1,-1,-1],"loss_changes":[1.4424007E1,1.02688265E1,0E0,0E0,0E0],"parents":[2147483647,0,0,1,1],"right_children":[2,4,-1,-1,-1],"split_conditions":[-5.4405683E-1,-6.5338486E-1,1.5882869E-1,4.8211735E-2,-3.6636528E-2],"split_indices":[215,330,0,0,0],"split_type":[0,0,0,0,0],"sum_hessian":[7E1,6.5E1,5E0,2E1,4.5E1],"tree_param":{"num_deleted":"0","num_feature":"1024","num_nodes":"5","size_leaf_vector":"1"}},{"base_weights":[2.609401E-2,-1.260344E-1,1.2019738E0,-2.937879E-2,8.981518E-2,1.7691909E-1,-3.131851E-2],"categories":[],"categories_nodes":[],"categories_segments":[],"categories_sizes":[],"default_left":[0,0,0,0,0,0,0],"id":23,"left_children":[1,3,5,-1,-1,-1,-1],"loss_changes":[1.3225087E1,1.0567926E1,8.310148E0,0E0,0E0,0E0,0E0],"parents":[2147483647,0,0,1,1,2,2],"right_children":[2,4,6,-1,-1,-1,-1],"split_conditions":[9.3220666E-2,1.6066416E-1,1.1977386E0,-2.937879E-2,8.981518E-2,1.7691909E-1,-3.131851E-2],"split_indices":[328,3,2,0,0,0,0],"split_type":[0,0,0,0,0,0,0],"sum_hessian":[7E1,6.2E1,8E0,5.4E1,8E0,6E0,2E0],"tree_param":{"num_deleted":"0","num_feature":"1024","num_nodes":"7","size_leaf_vector":"1"}},{"base_weights":[2.4236666E-2,7.2605014E-1,-2.1377605E-1,1.5593942E-1,-9.287546E-3,-3.9477047E-2,8.318417E-2],"categories":[],"categories_nodes":[],"categories_segments":[],"categories_sizes":[],"default_left":[0,0,0,0,0,0,0],"id":24,"left_children":[1,3,5,-1,-1,-1,-1],"loss_changes":[1.2110101E1,1.3430939E1,9.881331E0,0E0,0E0,0E0,0E0],"parents":[2147483647,0,0,1,1,2,2],"right_children":[2,4,6,-1,-1,-1,-1],"split_conditions":[5.4368865E-1,1.140713E0,-7.24948E-1,1.5593942E-1,-9.287546E-3,-3.9477047E-2,8.318417E-2],"split_indices":[587,197,748,0,0,0,0],"split_type":[0,0,0,0,0,0,0],"sum_hessian":[7E1,1.8E1,5.2E1,9E0,9E0,4.5E1,7E0],"tree_param":{"num_deleted":"0","num_feature":"1024","num_nodes":"7","size_leaf_vector":"1"}},{"base_weights":[2.2453822E-2,1.5095857E-1,-7.082918E-2,-3.554699E-2,4.0397264E-2],"categories":[],"categories_nodes":[],"categories_segments":[],"categories_sizes":[],"default_left":[0,0,0,0,0],"id":25,"left_children":[1,-1,3,-1,-1],"loss_changes":[1.0552889E1,0E0,9.034884E0,0E0,0E0],"parents":[2147483647,0,0,2,2],"right_children":[2,-1,4,-1,-1],"split_conditions":[8.3853954E-1,1.5095857E-1,1.4330509E0,-3.554699E-2,4.0397264E-2],"split_indices":[1011,0,85,0,0],"split_type":[0,0,0,0,0],"sum_hessian":[7E1,4E0,6.6E1,4.2E1,2.4E1],"tree_param":{"num_deleted":"0","num_feature":"1024","num_nodes":"5","size_leaf_vector":"1"}},{"base_weights":[2.1313477E-2,-7.771344E-2,1.2896055E-1,1.8909162E-2,-4.928056E-2],"categories":[],"categories_nodes":[],"categories_segments":[],"categories_sizes":[],"default_left":[0,0,0,0,0],"id":26,"left_children":[1,3,-1,-1,-1],"loss_changes":[9.510508E0,7.4524884E0,0E0,0E0,0E0],"parents":[2147483647,0,0,1,1],"right_children":[2,4,-1,-1,-1],"split_conditions":[-5.4405683E-1,2.117421E0,1.2896055E-1,1.8909162E-2,-4.928056E-2],"split_indices":[215,760,0,0,0],"split_type":[0,0,0,0,0],"sum_hessian":[7E1,6.5E1,5E0,3.9E1,2.6E1],"tree_param":{"num_deleted":"0","num_feature":"1024","num_nodes":"5","size_leaf_vector":"1"}},{"base_weights":[1.9881304E-2,6.1889327E-1,-1.8186463E-1,-2.3845121E-2,1.1946008E-1,-3.3861652E-2,7.145545E-2],"categories":[],"categories_nodes":[],"categories_segments":[],"categories_sizes":[],"default_left":[0,0,0,0,0,0,0],"id":27,"left_children":[1,3,5,-1,-1,-1,-1],"loss_changes":[8.794591E0,9.751728E0,7.3100696E0,0E0,0E0,0E0,0E0],"parents":[2147483647,0,0,1,1,2,2],"right_children":[2,4,6,-1,-1,-1,-1],"split_conditions":[5.4368865E-1,3.4684177E-2,-7.24948E-1,-2.3845121E-2,1.1946008E-1,-3.3861652E-2,7.145545E-2],"split_indices":[587,973,748,0,0,0,0],"split_type":[0,0,0,0,0,0,0],"sum_hessian":[7E1,1.8E1,5.2E1,7E0,1.1E1,4.5E1,7E0],"tree_param":{"num_deleted":"0","num_feature":"1024","num_nodes":"7","size_leaf_vector":"1"}},{"base_weights":[1.8128682E-2,-2.0439075E-1,5.1960105E-1,1.0362854E-1,-3.3879183E-2,-2.9038394E-2,1.0109853E-1],"categories":[],"categories_nodes":[],"categories_segments":[],"categories_sizes":[],"default_left":[0,0,0,0,0,0,0],"id":28,"left_children":[1,3,5,-1,-1,-1,-1],"loss_changes":[8.077614E0,7.9140835E0,9.4623995E0,0E0,0E0,0E0,0E0],"parents":[2147483647,0,0,1,1,2,2],"right_children":[2,4,6,-1,-1,-1,-1],"split_conditions":[6.6758215E-1,6.919931E-1,-8.272222E-1,1.0362854E-1,-3.3879183E-2,-2.9038394E-2,1.0109853E-1],"split_indices":[535,963,45,0,0,0,0],"split_type":[0,0,0,0,0,0,0],"sum_hessian":[7E1,4.8E1,2.2E1,4E0,4.4E1,8E0,1.4E1],"tree_param":{"num_deleted":"0","num_feature":"1024","num_nodes":"7","size_leaf_vector":"1"}},{"base_weights":[1.6612358E-2,-3.6521938E-2,1.6691697E-1,-2.7515983E-2,2.8569195E-2],"categories":[],"categories_nodes":[],"categories_segments":[],"categories_sizes":[],"default_left":[0,0,0,0,0],"id":29,"left_children":[1,3,-1,-1,-1],"loss_changes":[7.037231E0,5.3011723E0,0E0,0E0,0E0],"parents":[2147483647,0,0,1,1],"right_children":[2,4,-1,-1,-1],"split_conditions":[-2.74355E-2,-1.2880185E0,1.6691697E-1,-2.7515983E-2,2.8569195E-2],"split_indices":[282,670,0,0,0],"split_type":[0,0,0,0,0],"sum_hessian":[7E1,6.8E1,2E0,4E1,2.8E1],"tree_param":{"num_deleted":"0","num_feature":"1024","num_nodes":"5","size_leaf_vector":"1"}},{"base_weights":[1.6142396E-2,-2.3271629E-1,3.829073E-1,2.0409191E-2,-4.5308657E-2,1.0999017E-1,-4.6113706E-3],"categories":[],"categories_nodes":[],"categories_segments":[],"categories_sizes":[],"default_left":[0,0,0,0,0,0,0],"id":30,"left_children":[1,3,5,-1,-1,-1,-1],"loss_changes":[6.554371E0,4.1655035E0,9.626621E0,0E0,0E0,0E0,0E0],"parents":[2147483647,0,0,1,1,2,2],"right_children":[2,4,6,-1,-1,-1,-1],"split_conditions":[1.36495E-1,-8.1894535E-1,-3.015191E-1,2.0409191E-2,-4.5308657E-2,1.0999017E-1,-4.6113706E-3],"split_indices":[860,926,961,0,0,0,0],"split_type":[0,0,0,0,0,0,0],"sum_hessian":[7E1,4.1E1,2.9E1,1.3E1,2.8E1,1.1E1,1.8E1],"tree_param":{"num_deleted":"0","num_feature":"1024","num_nodes":"7","size_leaf_vector":"1"}},{"base_weights":[1.438972E-2,5.184184E-1,-1.4126815E-1,9.083421E-2,-3.2399174E-2,-5.489554E-2,5.909377E-3],"categories":[],"categories_nodes":[],"categories_segments":[],"categories_sizes":[],"default_left":[0,0,0,0,0,0,0],"id":31,"left_children":[1,3,5,-1,-1,-1,-1],"loss_changes":[5.756343E0,6.1876473E0,4.631298E0,0E0,0E0,0E0,0E0],"parents":[2147483647,0,0,1,1,2,2],"right_children":[2,4,6,-1,-1,-1,-1],"split_conditions":[4.2130992E-1,2.0658803E-1,-1.00135274E-1,9.083421E-2,-3.2399174E-2,-5.489554E-2,5.909377E-3],"split_indices":[665,724,691,0,0,0,0],"split_type":[0,0,0,0,0,0,0],"sum_hessian":[7E1,1.7E1,5.3E1,1.2E1,5E0,1.8E1,3.5E1],"tree_param":{"num_deleted":"0","num_feature":"1024","num_nodes":"7","size_leaf_vector":"1"}},{"base_weights":[1.2308545E-2,1.06603496E-1,-5.1569995E-2,5.6126025E-2,-1.7385198E-2],"categories":[],"categories_nodes":[],"categories_segments":[],"categories_sizes":[],"default_left":[0,0,0,0,0],"id":32,"left_children":[1,-1,3,-1,-1],"loss_changes":[5.280111E0,0E0,4.8384676E0,0E0,0E0],"parents":[2147483647,0,0,2,2],"right_children":[2,-1,4,-1,-1],"split_conditions":[8.3853954E-1,1.06603496E-1,-6.260826E-1,5.6126025E-2,-1.7385198E-2],"split_indices":[1011,0,982,0,0],"split_type":[0,0,0,0,0],"sum_hessian":[7E1,4E0,6.6E1,1E1,5.6E1],"tree_param":{"num_deleted":"0","num_feature":"1024","num_nodes":"5","size_leaf_vector":"1"}},{"base_weights":[1.21085225E-2,-7.795611E-2,7.324597E-1,2.1224024E-2,-2.7460111E-2,1.0771902E-1,-1.1033139E-2],"categories":[],"categories_nodes":[],"categories_segments":[],"categories_sizes":[],"default_left":[0,0,0,0,0,0,0],"id":33,"left_children":[1,3,5,-1,-1,-1,-1],"loss_changes":[4.9297123E0,3.626925E0,3.0124078E0,0E0,0E0,0E0,0E0],"parents":[2147483647,0,0,1,1,2,2],"right_children":[2,4,6,-1,-1,-1,-1],"split_conditions":[9.3220666E-2,-5.5469865E-1,1.1977386E0,2.1224024E-2,-2.7460111E-2,1.0771902E-1,-1.1033139E-2],"split_indices":[328,337,2,0,0,0,0],"split_type":[0,0,0,0,0,0,0],"sum_hessian":[7E1,6.2E1,8E0,2.4E1,3.8E1,6E0,2E0],"tree_param":{"num_deleted":"0","num_feature":"1024","num_nodes":"7","size_leaf_vector":"1"}},{"base_weights":[1.0829917E-2,-1.9808832E-1,3.2149744E-1,1.3586867E-4,-5.30625E-2,8.593464E-2,-4.329457E-3],"categories":[],"categories_nodes":[],"categories_segments":[],"categories_sizes":[],"default_left":[0,0,0,0,0,0,0],"id":34,"left_children":[1,3,5,-1,-1,-1,-1],"loss_changes":[4.669287E0,3.0174167E0,6.214617E0,0E0,0E0,0E0,0E0],"parents":[2147483647,0,0,1,1,2,2],"right_children":[2,4,6,-1,-1,-1,-1],"split_conditions":[1.36495E-1,-1.7327283E-1,-2.6861668E-1,1.3586867E-4,-5.30625E-2,8.593464E-2,-4.329457E-3],"split_indices":[860,951,961,0,0,0,0],"split_type":[0,0,0,0,0,0,0],"sum_hessian":[7E1,4.1E1,2.9E1,2.5E1,1.6E1,1.2E1,1.7E1],"tree_param":{"num_deleted":"0","num_feature":"1024","num_nodes":"7","size_leaf_vector":"1"}},{"base_weights":[9.241096E-3,3.8994452E-1,-1.4610727E-1,-8.992493E-3,7.790475E-2,5.929469E-2,-2.865744E-2],"categories":[],"categories_nodes":[],"categories_segments":[],"categories_sizes":[],"default_left":[0,0,0,0,0,0,0],"id":35,"left_children":[1,3,5,-1,-1,-1,-1],"loss_changes":[4.319892E0,4.39404E0,5.0705094E0,0E0,0E0,0E0,0E0],"parents":[2147483647,0,0,1,1,2,2],"right_children":[2,4,6,-1,-1,-1,-1],"split_conditions":[1.3907186E0,-3.5353476E-1,-6.260826E-1,-8.992493E-3,7.790475E-2,5.929469E-2,-2.865744E-2],"split_indices":[1011,267,982,0,0,0,0],"split_type":[0,0,0,0,0,0,0],"sum_hessian":[7E1,2.1E1,4.9E1,9E0,1.2E1,7E0,4.2E1],"tree_param":{"num_deleted":"0","num_feature":"1024","num_nodes":"7","size_leaf_vector":"1"}},{"base_weights":[8.31379E-3,3.9798364E-1,-1.1955382E-1,-1.231614E-2,7.640355E-2,2.3469776E-2,-3.222749E-2],"categories":[],"categories_nodes":[],"categories_segments":[],"categories_sizes":[],"default_left":[0,0,0,0,0,0,0],"id":36,"left_children":[1,3,5,-1,-1,-1,-1],"loss_changes":[3.6757488E0,3.8966596E0,3.8518558E0,0E0,0E0,0E0,0E0],"parents":[2147483647,0,0,1,1,2,2],"right_children":[2,4,6,-1,-1,-1,-1],"split_conditions":[5.4368865E-1,3.4684177E-2,2.840054E-1,-1.231614E-2,7.640355E-2,2.3469776E-2,-3.222749E-2],"split_indices":[587,973,391,0,0,0,0],"split_type":[0,0,0,0,0,0,0],"sum_hessian":[7E1,1.8E1,5.2E1,7E0,1.1E1,1.8E1,3.4E1],"tree_param":{"num_deleted":"0","num_feature":"1024","num_nodes":"7","size_leaf_vector":"1"}},{"base_weights":[7.165608E-3,1.1743902E-1,-4.257458E-1,3.360648E-2,-2.0789139E-2,-5.164356E-2,-0E0],"categories":[],"categories_nodes":[],"categories_segments":[],"categories_sizes":[],"default_left":[0,0,0,0,0,0,0],"id":37,"left_children":[1,3,5,-1,-1,-1,-1],"loss_changes":[3.2364185E0,4.1887417E0,6.2011313E-1,0E0,0E0,0E0,0E0],"parents":[2147483647,0,0,1,1,2,2],"right_children":[2,4,6,-1,-1,-1,-1],"split_conditions":[-5.347336E-1,2.117421E0,1.5399765E0,3.360648E-2,-2.0789139E-2,-5.164356E-2,-0E0],"split_indices":[1018,760,8,0,0,0,0],"split_type":[0,0,0,0,0,0,0],"sum_hessian":[7E1,5.7E1,1.3E1,3.5E1,2.2E1,1.1E1,2E0],"tree_param":{"num_deleted":"0","num_feature":"1024","num_nodes":"7","size_leaf_vector":"1"}},{"base_weights":[5.026774E-3,3.7663502E-1,-1.0722851E-1,-8.967066E-3,7.393946E-2,2.5696743E-2,-2.2768237E-2],"categories":[],"categories_nodes":[],"categories_segments":[],"categories_sizes":[],"default_left":[0,0,0,0,0,0,0],"id":38,"left_children":[1,3,5,-1,-1,-1,-1],"loss_changes":[3.0958028E0,3.3182578E0,2.3615918E0,0E0,0E0,0E0,0E0],"parents":[2147483647,0,0,1,1,2,2],"right_children":[2,4,6,-1,-1,-1,-1],"split_conditions":[6.0521036E-1,-1.9646432E-2,1.4279892E-1,-8.967066E-3,7.393946E-2,2.5696743E-2,-2.2768237E-2],"split_indices":[390,75,391,0,0,0,0],"split_type":[0,0,0,0,0,0,0],"sum_hessian":[7E1,1.7E1,5.3E1,7E0,1E1,1.2E1,4.1E1],"tree_param":{"num_deleted":"0","num_feature":"1024","num_nodes":"7","size_leaf_vector":"1"}},{"base_weights":[4.2964546E-3,-7.7324316E-2,4.698867E-1,2.4709787E-2,-2.2176495E-2,-0E0,7.4064635E-2],"categories":[],"categories_nodes":[],"categories_segments":[],"categories_sizes":[],"default_left":[0,0,0,0,0,0,0],"id":39,"left_children":[1,3,5,-1,-1,-1,-1],"loss_changes":[2.8935776E0,2.802887E0,1.5750523E0,0E0,0E0,0E0,0E0],"parents":[2147483647,0,0,1,1,2,2],"right_children":[2,4,6,-1,-1,-1,-1],"split_conditions":[1.3652751E-1,-8.1421477E-1,-8.355333E-1,2.4709787E-2,-2.2176495E-2,-0E0,7.4064635E-2],"split_indices":[380,144,4,0,0,0,0],"split_type":[0,0,0,0,0,0,0],"sum_hessian":[7E1,5.9E1,1.1E1,1.7E1,4.2E1,4E0,7E0],"tree_param":{"num_deleted":"0","num_feature":"1024","num_nodes":"7","size_leaf_vector":"1"}},{"base_weights":[4.19567E-3,-1.5360253E-1,2.43061E-1,2.2850852E-3,-3.789051E-2,6.270056E-2,-9.558325E-4],"categories":[],"categories_nodes":[],"categories_segments":[],"categories_sizes":[],"default_left":[0,0,0,0,0,0,0],"id":40,"left_children":[1,3,5,-1,-1,-1,-1],"loss_changes":[2.7207196E0,1.8322053E0,3.1729798E0,0E0,0E0,0E0,0E0],"parents":[2147483647,0,0,1,1,2,2],"right_children":[2,4,6,-1,-1,-1,-1],"split_conditions":[1.36495E-1,3.879318E-1,-2.6861668E-1,2.2850852E-3,-3.789051E-2,6.270056E-2,-9.558325E-4],"split_indices":[860,36,961,0,0,0,0],"split_type":[0,0,0,0,0,0,0],"sum_hessian":[7E1,4.1E1,2.9E1,2.2E1,1.9E1,1.2E1,1.7E1],"tree_param":{"num_deleted":"0","num_feature":"1024","num_nodes":"7","size_leaf_vector":"1"}},{"base_weights":[3.25227E-3,2.8682026E-1,-1.0984547E-1,-5.531906E-3,5.7537336E-2,-2.9384408E-2,1.5512275E-2],"categories":[],"categories_nodes":[],"categories_segments":[],"categories_sizes":[],"default_left":[0,0,0,0,0,0,0],"id":41,"left_children":[1,3,5,-1,-1,-1,-1],"loss_changes":[2.3652387E0,2.398537E0,2.5054638E0,0E0,0E0,0E0,0E0],"parents":[2147483647,0,0,1,1,2,2],"right_children":[2,4,6,-1,-1,-1,-1],"split_conditions":[1.3907186E0,-3.5353476E-1,1.4330509E0,-5.531906E-3,5.7537336E-2,-2.9384408E-2,1.5512275E-2],"split_indices":[1011,267,85,0,0,0,0],"split_type":[0,0,0,0,0,0,0],"sum_hessian":[7E1,2.1E1,4.9E1,9E0,1.2E1,3E1,1.9E1],"tree_param":{"num_deleted":"0","num_feature":"1024","num_nodes":"7","size_leaf_vector":"1"}},{"base_weights":[2.4882576E-3,2.9360673E-1,-9.805649E-2,-1.0668831E-2,5.125041E-2,1.4131866E-2,-2.437106E-2],"categories":[],"categories_nodes":[],"categories_segments":[],"categories_sizes":[],"default_left":[0,0,0,0,0,0,0],"id":42,"left_children":[1,3,5,-1,-1,-1,-1],"loss_changes":[2.1757357E0,1.9389061E0,1.8640139E0,0E0,0E0,0E0,0E0],"parents":[2147483647,0,0,1,1,2,2],"right_children":[2,4,6,-1,-1,-1,-1],"split_conditions":[6.15596E-1,1.5976715E-1,2.840054E-1,-1.0668831E-2,5.125041E-2,1.4131866E-2,-2.437106E-2],"split_indices":[587,741,391,0,0,0,0],"split_type":[0,0,0,0,0,0,0],"sum_hessian":[7E1,1.9E1,5.1E1,6E0,1.3E1,1.8E1,3.3E1],"tree_param":{"num_deleted":"0","num_feature":"1024","num_nodes":"7","size_leaf_vector":"1"}},{"base_weights":[1.7454046E-3,2.9477656E-1,-8.4776424E-2,5.5052012E-2,-1.03444895E-2,-1.7777616E-2,2.1912592E-2],"categories":[],"categories_nodes":[],"categories_segments":[],"categories_sizes":[],"default_left":[0,0,0,0,0,0,0],"id":43,"left_children":[1,3,5,-1,-1,-1,-1],"loss_changes":[1.9049231E0,2.034257E0,1.5108645E0,0E0,0E0,0E0,0E0],"parents":[2147483647,0,0,1,1,2,2],"right_children":[2,4,6,-1,-1,-1,-1],"split_conditions":[6.0521036E-1,5.072511E-1,-7.599071E-1,5.5052012E-2,-1.03444895E-2,-1.7777616E-2,2.1912592E-2],"split_indices":[390,107,557,0,0,0,0],"split_type":[0,0,0,0,0,0,0],"sum_hessian":[7E1,1.7E1,5.3E1,1.1E1,6E0,4.2E1,1.1E1],"tree_param":{"num_deleted":"0","num_feature":"1024","num_nodes":"7","size_leaf_vector":"1"}},{"base_weights":[1.2080589E-3,1.1277469E-1,-2.3242694E-1,-0E0,6.0813185E-2,-4.2448413E-2,8.771205E-3],"categories":[],"categories_nodes":[],"categories_segments":[],"categories_sizes":[],"default_left":[0,0,0,0,0,0,0],"id":44,"left_children":[1,3,5,-1,-1,-1,-1],"loss_changes":[1.7909237E0,2.513959E0,1.5089296E0,0E0,0E0,0E0,0E0],"parents":[2147483647,0,0,1,1,2,2],"right_children":[2,4,6,-1,-1,-1,-1],"split_conditions":[-9.073474E-3,-2.2935364E-1,8.815057E-2,-0E0,6.0813185E-2,-4.2448413E-2,8.771205E-3],"split_indices":[786,875,812,0,0,0,0],"split_type":[0,0,0,0,0,0,0],"sum_hessian":[7E1,4.9E1,2.1E1,4.1E1,8E0,1.4E1,7E0],"tree_param":{"num_deleted":"0","num_feature":"1024","num_nodes":"7","size_leaf_vector":"1"}},{"base_weights":[1.8658609E-3,-5.4808408E-2,3.3849075E-1,4.9116733E-3,-2.9488862E-2,-0E0,4.950412E-2],"categories":[],"categories_nodes":[],"categories_segments":[],"categories_sizes":[],"default_left":[0,0,0,0,0,0,0],"id":45,"left_children":[1,3,5,-1,-1,-1,-1],"loss_changes":[1.4961141E0,1.6146749E0,7.6543546E-1,0E0,0E0,0E0,0E0],"parents":[2147483647,0,0,1,1,2,2],"right_children":[2,4,6,-1,-1,-1,-1],"split_conditions":[1.3652751E-1,-7.279372E-2,-2.7553026E-2,4.9116733E-3,-2.9488862E-2,-0E0,4.950412E-2],"split_indices":[380,786,75,0,0,0,0],"split_type":[0,0,0,0,0,0,0],"sum_hessian":[7E1,5.9E1,1.1E1,4E1,1.9E1,3E0,8E0],"tree_param":{"num_deleted":"0","num_feature":"1024","num_nodes":"7","size_leaf_vector":"1"}},{"base_weights":[1.4089502E-3,2.3544595E-1,-7.7511944E-2,-4.3300292E-3,4.3327585E-2,1.1368575E-2,-1.968672E-2],"categories":[],"categories_nodes":[],"categories_segments":[],"categories_sizes":[],"default_left":[0,0,0,0,0,0,0],"id":46,"left_children":[1,3,5,-1,-1,-1,-1],"loss_changes":[1.3902558E0,1.279683E0,1.2280343E0,0E0,0E0,0E0,0E0],"parents":[2147483647,0,0,1,1,2,2],"right_children":[2,4,6,-1,-1,-1,-1],"split_conditions":[6.15596E-1,3.4684177E-2,2.840054E-1,-4.3300292E-3,4.3327585E-2,1.1368575E-2,-1.968672E-2],"split_indices":[587,973,391,0,0,0,0],"split_type":[0,0,0,0,0,0,0],"sum_hessian":[7E1,1.9E1,5.1E1,7E0,1.2E1,1.8E1,3.3E1],"tree_param":{"num_deleted":"0","num_feature":"1024","num_nodes":"7","size_leaf_vector":"1"}},{"base_weights":[7.763978E-4,8.487023E-2,-2.2776121E-1,-3.837561E-3,3.4610223E-2,5.1105125E-3,-3.217027E-2],"categories":[],"categories_nodes":[],"categories_segments":[],"categories_sizes":[],"default_left":[0,0,0,0,0,0,0],"id":47,"left_children":[1,3,5,-1,-1,-1,-1],"loss_changes":[1.2931311E0,1.8829772E0,6.019687E-1,0E0,0E0,0E0,0E0],"parents":[2147483647,0,0,1,1,2,2],"right_children":[2,4,6,-1,-1,-1,-1],"split_conditions":[7.4884045E-1,6.6758215E-1,2.745893E-1,-3.837561E-3,3.4610223E-2,5.1105125E-3,-3.217027E-2],"split_indices":[934,535,241,0,0,0,0],"split_type":[0,0,0,0,0,0,0],"sum_hessian":[7E1,5.3E1,1.7E1,3.5E1,1.8E1,3E0,1.4E1],"tree_param":{"num_deleted":"0","num_feature":"1024","num_nodes":"7","size_leaf_vector":"1"}},{"base_weights":[1.5889922E-5,2.0459443E-1,-7.8740604E-2,-2.9338428E-3,4.1419964E-2,1.2864216E-2,-2.0458147E-2],"categories":[],"categories_nodes":[],"categories_segments":[],"categories_sizes":[],"default_left":[0,0,0,0,0,0,0],"id":48,"left_children":[1,3,5,-1,-1,-1,-1],"loss_changes":[1.2068701E0,1.2527277E0,1.3429413E0,0E0,0E0,0E0,0E0],"parents":[2147483647,0,0,1,1,2,2],"right_children":[2,4,6,-1,-1,-1,-1],"split_conditions":[1.3907186E0,-3.5353476E-1,-3.9535528E-1,-2.9338428E-3,4.1419964E-2,1.2864216E-2,-2.0458147E-2],"split_indices":[1011,267,718,0,0,0,0],"split_type":[0,0,0,0,0,0,0],"sum_hessian":[7E1,2.1E1,4.9E1,9E0,1.2E1,1.7E1,3.2E1],"tree_param":{"num_deleted":"0","num_feature":"1024","num_nodes":"7","size_leaf_vector":"1"}},{"base_weights":[-0E0,2.2044624E-1,-6.33898E-2,4.0628E-2,-4.8370915E-3,-0E0,-3.1207878E-2],"categories":[],"categories_nodes":[],"categories_segments":[],"categories_sizes":[],"default_left":[0,0,0,0,0,0,0],"id":49,"left_children":[1,3,5,-1,-1,-1,-1],"loss_changes":[1.0654168E0,1.0629985E0,9.050442E-1,0E0,0E0,0E0,0E0],"parents":[2147483647,0,0,1,1,2,2],"right_children":[2,4,6,-1,-1,-1,-1],"split_conditions":[6.0521036E-1,5.072511E-1,6.610054E-1,4.0628E-2,-4.8370915E-3,-0E0,-3.1207878E-2],"split_indices":[390,107,165,0,0,0,0],"split_type":[0,0,0,0,0,0,0],"sum_hessian":[7E1,1.7E1,5.3E1,1.1E1,6E0,4.2E1,1.1E1],"tree_param":{"num_deleted":"0","num_feature":"1024","num_nodes":"7","size_leaf_vector":"1"}},{"base_weights":[-0E0,-4.625404E-2,2.7338868E-1,1.3815957E-2,-1.334096E-2,-0E0,4.24429E-2],"categories":[],"categories_nodes":[],"categories_segments":[],"categories_sizes":[],"default_left":[0,0,0,0,0,0,0],"id":50,"left_children":[1,3,5,-1,-1,-1,-1],"loss_changes":[9.868222E-1,9.631648E-1,4.9152392E-1,0E0,0E0,0E0,0E0],"parents":[2147483647,0,0,1,1,2,2],"right_children":[2,4,6,-1,-1,-1,-1],"split_conditions":[1.3652751E-1,-8.1421477E-1,2.025716E-2,1.3815957E-2,-1.334096E-2,-0E0,4.24429E-2],"split_indices":[380,144,240,0,0,0,0],"split_type":[0,0,0,0,0,0,0],"sum_hessian":[7E1,5.9E1,1.1E1,1.7E1,4.2E1,4E0,7E0],"tree_param":{"num_deleted":"0","num_feature":"1024","num_nodes":"7","size_leaf_vector":"1"}},{"base_weights":[-0E0,2.0349774E-1,-5.871041E-2,4.1695215E-2,-4.223827E-3,5.6758174E-3,-1.6310899E-2],"categories":[],"categories_nodes":[],"categories_segments":[],"categories_sizes":[],"default_left":[0,0,0,0,0,0,0],"id":51,"left_children":[1,3,5,-1,-1,-1,-1],"loss_changes":[9.0910804E-1,1.1140976E0,7.027337E-1,0E0,0E0,0E0,0E0],"parents":[2147483647,0,0,1,1,2,2],"right_children":[2,4,6,-1,-1,-1,-1],"split_conditions":[4.2130992E-1,1.5280652E0,3.988758E-1,4.1695215E-2,-4.223827E-3,5.6758174E-3,-1.6310899E-2],"split_indices":[665,770,842,0,0,0,0],"split_type":[0,0,0,0,0,0,0],"sum_hessian":[7E1,1.7E1,5.3E1,1E1,7E0,2.3E1,3E1],"tree_param":{"num_deleted":"0","num_feature":"1024","num_nodes":"7","size_leaf_vector":"1"}},{"base_weights":[-0E0,1.8611233E-1,-5.8123384E-2,-1.9986462E-3,3.5591103E-2,3.1158559E-3,-2.0008061E-2],"categories":[],"categories_nodes":[],"categories_segments":[],"categories_sizes":[],"default_left":[0,0,0,0,0,0,0],"id":52,"left_children":[1,3,5,-1,-1,-1,-1],"loss_changes":[8.1816155E-1,8.189321E-1,7.5297457E-1,0E0,0E0,0E0,0E0],"parents":[2147483647,0,0,1,1,2,2],"right_children":[2,4,6,-1,-1,-1,-1],"split_conditions":[5.4368865E-1,3.4684177E-2,-2.1281496E-1,-1.9986462E-3,3.5591103E-2,3.1158559E-3,-2.0008061E-2],"split_indices":[587,973,116,0,0,0,0],"split_type":[0,0,0,0,0,0,0],"sum_hessian":[7E1,1.8E1,5.2E1,7E0,1.1E1,3E1,2.2E1],"tree_param":{"num_deleted":"0","num_feature":"1024","num_nodes":"7","size_leaf_vector":"1"}},{"base_weights":[-0E0,-1.7419386E-1,6.825481E-2,-3.3798136E-2,7.725851E-3,-6.9236294E-3,1.849572E-2],"categories":[],"categories_nodes":[],"categories_segments":[],"categories_sizes":[],"default_left":[0,0,0,0,0,0,0],"id":53,"left_children":[1,3,5,-1,-1,-1,-1],"loss_changes":[8.059375E-1,9.053353E-1,9.0665424E-1,0E0,0E0,0E0,0E0],"parents":[2147483647,0,0,1,1,2,2],"right_children":[2,4,6,-1,-1,-1,-1],"split_conditions":[5.29366E-1,3.7291802E-2,-1.8333205E0,-3.3798136E-2,7.725851E-3,-6.9236294E-3,1.849572E-2],"split_indices":[863,353,376,0,0,0,0],"split_type":[0,0,0,0,0,0,0],"sum_hessian":[7E1,1.8E1,5.2E1,1.2E1,6E0,2.2E1,3E1],"tree_param":{"num_deleted":"0","num_feature":"1024","num_nodes":"7","size_leaf_vector":"1"}},{"base_weights":[-0E0,1.525746E-1,-5.985634E-2,-1.3239284E-3,3.1249017E-2,-2.7066162E-2,5.2340585E-4],"categories":[],"categories_nodes":[],"categories_segments":[],"categories_sizes":[],"default_left":[0,0,0,0,0,0,0],"id":54,"left_children":[1,3,5,-1,-1,-1,-1],"loss_changes":[6.7784643E-1,7.2179276E-1,8.126315E-1,0E0,0E0,0E0,0E0],"parents":[2147483647,0,0,1,1,2,2],"right_children":[2,4,6,-1,-1,-1,-1],"split_conditions":[1.3907186E0,-3.5353476E-1,5.755007E-1,-1.3239284E-3,3.1249017E-2,-2.7066162E-2,5.2340585E-4],"split_indices":[1011,267,863,0,0,0,0],"split_type":[0,0,0,0,0,0,0],"sum_hessian":[7E1,2.1E1,4.9E1,9E0,1.2E1,1.3E1,3.6E1],"tree_param":{"num_deleted":"0","num_feature":"1024","num_nodes":"7","size_leaf_vector":"1"}},{"base_weights":[-0E0,-7.481444E-2,1.1499009E-1,-0E0,-2.0671729E-2,-5.1544055E-5,3.1209825E-2],"categories":[],"categories_nodes":[],"categories_segments":[],"categories_sizes":[],"default_left":[0,0,0,0,0,0,0],"id":55,"left_children":[1,3,5,-1,-1,-1,-1],"loss_changes":[6.2235415E-1,4.7279477E-1,8.275007E-1,0E0,0E0,0E0,0E0],"parents":[2147483647,0,0,1,1,2,2],"right_children":[2,4,6,-1,-1,-1,-1],"split_conditions":[1.36495E-1,-1.7327283E-1,-1.5963013E-1,-0E0,-2.0671729E-2,-5.1544055E-5,3.1209825E-2],"split_indices":[860,951,573,0,0,0,0],"split_type":[0,0,0,0,0,0,0],"sum_hessian":[7E1,4.1E1,2.9E1,2.5E1,1.6E1,1.7E1,1.2E1],"tree_param":{"num_deleted":"0","num_feature":"1024","num_nodes":"7","size_leaf_vector":"1"}},{"base_weights":[-0E0,-4.3596465E-2,1.7187852E-1,7.0129044E-4,-1.9373415E-2,-0E0,2.861088E-2],"categories":[],"categories_nodes":[],"categories_segments":[],"categories_sizes":[],"default_left":[0,0,0,0,0,0,0],"id":56,"left_children":[1,3,5,-1,-1,-1,-1],"loss_changes":[5.633907E-1,5.157497E-1,2.3789063E-1,0E0,0E0,0E0,0E0],"parents":[2147483647,0,0,1,1,2,2],"right_children":[2,4,6,-1,-1,-1,-1],"split_conditions":[5.3742427E-1,2.6762852E-1,-4.1603124E-1,7.0129044E-4,-1.9373415E-2,-0E0,2.861088E-2],"split_indices":[155,1013,164,0,0,0,0],"split_type":[0,0,0,0,0,0,0],"sum_hessian":[7E1,5.5E1,1.5E1,3.9E1,1.6E1,7E0,8E0],"tree_param":{"num_deleted":"0","num_feature":"1024","num_nodes":"7","size_leaf_vector":"1"}},{"base_weights":[-0E0,-4.1011777E-2,1.6609062E-1,-2.010578E-2,-0E0,-0E0,2.9927382E-2],"categories":[],"categories_nodes":[],"categories_segments":[],"categories_sizes":[],"default_left":[0,0,0,0,0,0,0],"id":57,"left_children":[1,3,5,-1,-1,-1,-1],"loss_changes":[5.209336E-1,4.119538E-1,4.2328134E-1,0E0,0E0,0E0,0E0],"parents":[2147483647,0,0,1,1,2,2],"right_children":[2,4,6,-1,-1,-1,-1],"split_conditions":[6.299307E-1,1.261306E0,-1.8748688E0,-2.010578E-2,-0E0,-0E0,2.9927382E-2],"split_indices":[996,348,292,0,0,0,0],"split_type":[0,0,0,0,0,0,0],"sum_hessian":[7E1,5.5E1,1.5E1,1.2E1,4.3E1,6E0,9E0],"tree_param":{"num_deleted":"0","num_feature":"1024","num_nodes":"7","size_leaf_vector":"1"}},{"base_weights":[-0E0,-1.7537018E-2,3.19197E-2,1.2879019E-2,-7.1115717E-3],"categories":[],"categories_nodes":[],"categories_segments":[],"categories_sizes":[],"default_left":[0,0,0,0,0],"id":58,"left_children":[1,3,-1,-1,-1],"loss_changes":[4.7894204E-1,4.9710372E-1,0E0,0E0,0E0],"parents":[2147483647,0,0,1,1],"right_children":[2,4,-1,-1,-1],"split_conditions":[1.2511891E-1,1.2092893E-1,3.19197E-2,1.2879019E-2,-7.1115717E-3],"split_indices":[466,1005,0,0,0],"split_type":[0,0,0,0,0],"sum_hessian":[7E1,6.6E1,4E0,1.5E1,5.1E1],"tree_param":{"num_deleted":"0","num_feature":"1024","num_nodes":"5","size_leaf_vector":"1"}},{"base_weights":[-0E0,-3.2405406E-2,1.7661731E-1,-8.833926E-3,1.0588834E-2,-0E0,2.9669797E-2],"categories":[],"categories_nodes":[],"categories_segments":[],"categories_sizes":[],"default_left":[0,0,0,0,0,0,0],"id":59,"left_children":[1,3,5,-1,-1,-1,-1],"loss_changes":[4.513524E-1,4.4841766E-1,2.703018E-1,0E0,0E0,0E0,0E0],"parents":[2147483647,0,0,1,1,2,2],"right_children":[2,4,6,-1,-1,-1,-1],"split_conditions":[8.250074E-2,8.492923E-1,-5.789038E-1,-8.833926E-3,1.0588834E-2,-0E0,2.9669797E-2],"split_indices":[380,147,343,0,0,0,0],"split_type":[0,0,0,0,0,0,0],"sum_hessian":[7E1,5.8E1,1.2E1,4.4E1,1.4E1,5E0,7E0],"tree_param":{"num_deleted":"0","num_feature":"1024","num_nodes":"7","size_leaf_vector":"1"}},{"base_weights":[-0E0,-7.3192514E-2,8.290407E-2,-2.125503E-2,-0E0,2.2867376E-2,-0E0],"categories":[],"categories_nodes":[],"categories_segments":[],"categories_sizes":[],"default_left":[0,0,0,0,0,0,0],"id":60,"left_children":[1,3,5,-1,-1,-1,-1],"loss_changes":[4.341731E-1,4.64897E-1,4.096516E-1,0E0,0E0,0E0,0E0],"parents":[2147483647,0,0,1,1,2,2],"right_children":[2,4,6,-1,-1,-1,-1],"split_conditions":[5.383893E-1,-6.8048835E-1,6.645238E-1,-2.125503E-2,-0E0,2.2867376E-2,-0E0],"split_indices":[503,328,621,0,0,0,0],"split_type":[0,0,0,0,0,0,0],"sum_hessian":[7E1,3.5E1,3.5E1,1.4E1,2.1E1,1.2E1,2.3E1],"tree_param":{"num_deleted":"0","num_feature":"1024","num_nodes":"7","size_leaf_vector":"1"}},{"base_weights":[-0E0,-1.1618889E-1,4.79508E-2,-2.3417782E-2,4.272741E-3,-4.9263276E-3,1.3527348E-2],"categories":[],"categories_nodes":[],"categories_segments":[],"categories_sizes":[],"default_left":[0,0,0,0,0,0,0],"id":61,"left_children":[1,3,5,-1,-1,-1,-1],"loss_changes":[3.7045956E-1,4.4760978E-1,4.9200922E-1,0E0,0E0,0E0,0E0],"parents":[2147483647,0,0,1,1,2,2],"right_children":[2,4,6,-1,-1,-1,-1],"split_conditions":[5.29366E-1,3.7291802E-2,-1.8333205E0,-2.3417782E-2,4.272741E-3,-4.9263276E-3,1.3527348E-2],"split_indices":[863,353,376,0,0,0,0],"split_type":[0,0,0,0,0,0,0],"sum_hessian":[7E1,1.8E1,5.2E1,1.2E1,6E0,2.2E1,3E1],"tree_param":{"num_deleted":"0","num_feature":"1024","num_nodes":"7","size_leaf_vector":"1"}},{"base_weights":[-0E0,1.0953476E-1,-4.0992703E-2,-0E0,2.2680042E-2,-1.6503565E-2,1.6635575E-3],"categories":[],"categories_nodes":[],"categories_segments":[],"categories_sizes":[],"default_left":[0,0,0,0,0,0,0],"id":62,"left_children":[1,3,5,-1,-1,-1,-1],"loss_changes":[3.4113398E-1,3.850263E-1,4.294176E-1,0E0,0E0,0E0,0E0],"parents":[2147483647,0,0,1,1,2,2],"right_children":[2,4,6,-1,-1,-1,-1],"split_conditions":[1.3907186E0,-3.5353476E-1,1.3488935E0,-0E0,2.2680042E-2,-1.6503565E-2,1.6635575E-3],"split_indices":[1011,267,744,0,0,0,0],"split_type":[0,0,0,0,0,0,0],"sum_hessian":[7E1,2.1E1,4.9E1,9E0,1.2E1,1.8E1,3.1E1],"tree_param":{"num_deleted":"0","num_feature":"1024","num_nodes":"7","size_leaf_vector":"1"}},{"base_weights":[-0E0,-5.126643E-2,8.226269E-2,3.950558E-3,-1.0580938E-2,-0E0,2.2913588E-2],"categories":[],"categories_nodes":[],"categories_segments":[],"categories_sizes":[],"default_left":[0,0,0,0,0,0,0],"id":63,"left_children":[1,3,5,-1,-1,-1,-1],"loss_changes":[3.0870318E-1,2.4070728E-1,4.5665967E-1,0E0,0E0,0E0,0E0],"parents":[2147483647,0,0,1,1,2,2],"right_children":[2,4,6,-1,-1,-1,-1],"split_conditions":[1.36495E-1,3.9656663E-1,-1.5963013E-1,3.950558E-3,-1.0580938E-2,-0E0,2.2913588E-2],"split_indices":[860,895,573,0,0,0,0],"split_type":[0,0,0,0,0,0,0],"sum_hessian":[7E1,4.1E1,2.9E1,1.2E1,2.9E1,1.7E1,1.2E1],"tree_param":{"num_deleted":"0","num_feature":"1024","num_nodes":"7","size_leaf_vector":"1"}},{"base_weights":[-0E0,-1.0219614E-1,4.1415215E-2,-1.5570632E-2,-0E0,1.1930599E-2,-6.781805E-3],"categories":[],"categories_nodes":[],"categories_segments":[],"categories_sizes":[],"default_left":[0,0,0,0,0,0,0],"id":64,"left_children":[1,3,5,-1,-1,-1,-1],"loss_changes":[2.8326398E-1,1.340852E-1,4.7647333E-1,0E0,0E0,0E0,0E0],"parents":[2147483647,0,0,1,1,2,2],"right_children":[2,4,6,-1,-1,-1,-1],"split_conditions":[-9.7077733E-1,5.452845E-1,5.675483E-3,-1.5570632E-2,-0E0,1.1930599E-2,-6.781805E-3],"split_indices":[82,516,804,0,0,0,0],"split_type":[0,0,0,0,0,0,0],"sum_hessian":[7E1,1.8E1,5.2E1,1.3E1,5E0,3.3E1,1.9E1],"tree_param":{"num_deleted":"0","num_feature":"1024","num_nodes":"7","size_leaf_vector":"1"}},{"base_weights":[-0E0,1.346713E-1,-2.4994135E-2,2.1058043E-2,-0E0,-1.0997054E-2,4.3456745E-3],"categories":[],"categories_nodes":[],"categories_segments":[],"categories_sizes":[],"default_left":[0,0,0,0,0,0,0],"id":65,"left_children":[1,3,5,-1,-1,-1,-1],"loss_changes":[2.6324987E-1,1.5022045E-1,3.7592387E-1,0E0,0E0,0E0,0E0],"parents":[2147483647,0,0,1,1,2,2],"right_children":[2,4,6,-1,-1,-1,-1],"split_conditions":[1.2536652E0,-8.341967E-2,1.6805725E0,2.1058043E-2,-0E0,-1.0997054E-2,4.3456745E-3],"split_indices":[370,52,348,0,0,0,0],"split_type":[0,0,0,0,0,0,0],"sum_hessian":[7E1,1.2E1,5.8E1,8E0,4E0,2.9E1,2.9E1],"tree_param":{"num_deleted":"0","num_feature":"1024","num_nodes":"7","size_leaf_vector":"1"}},{"base_weights":[-0E0,-3.77507E-2,9.2291884E-2,2.3790146E-3,-1.1892929E-2,1.9208746E-2,-2.455303E-3],"categories":[],"categories_nodes":[],"categories_segments":[],"categories_sizes":[],"default_left":[0,0,0,0,0,0,0],"id":66,"left_children":[1,3,5,-1,-1,-1,-1],"loss_changes":[2.6076838E-1,2.9128048E-1,3.4848896E-1,0E0,0E0,0E0,0E0],"parents":[2147483647,0,0,1,1,2,2],"right_children":[2,4,6,-1,-1,-1,-1],"split_conditions":[6.6758215E-1,-9.612623E-1,3.4930065E-1,2.3790146E-3,-1.1892929E-2,1.9208746E-2,-2.455303E-3],"split_indices":[535,567,724,0,0,0,0],"split_type":[0,0,0,0,0,0,0],"sum_hessian":[7E1,4.8E1,2.2E1,2.4E1,2.4E1,1.4E1,8E0],"tree_param":{"num_deleted":"0","num_feature":"1024","num_nodes":"7","size_leaf_vector":"1"}},{"base_weights":[-0E0,8.630747E-2,-3.5406325E-2,-0E0,2.6668137E-2,-1.6118307E-2,-0E0],"categories":[],"categories_nodes":[],"categories_segments":[],"categories_sizes":[],"default_left":[0,0,0,0,0,0,0],"id":67,"left_children":[1,3,5,-1,-1,-1,-1],"loss_changes":[2.2840203E-1,2.2355221E-1,2.6394972E-1,0E0,0E0,0E0,0E0],"parents":[2147483647,0,0,1,1,2,2],"right_children":[2,4,6,-1,-1,-1,-1],"split_conditions":[-2.9078674E-1,5.454729E-1,5.099932E-1,-0E0,2.6668137E-2,-1.6118307E-2,-0E0],"split_indices":[868,257,863,0,0,0,0],"split_type":[0,0,0,0,0,0,0],"sum_hessian":[7E1,2.2E1,4.8E1,1.7E1,5E0,1.2E1,3.6E1],"tree_param":{"num_deleted":"0","num_feature":"1024","num_nodes":"7","size_leaf_vector":"1"}},{"base_weights":[-0E0,1.2146902E-1,-2.1086724E-2,-0E0,1.7987965E-2,-9.192406E-3,3.3158862E-3],"categories":[],"categories_nodes":[],"categories_segments":[],"categories_sizes":[],"default_left":[0,0,0,0,0,0,0],"id":68,"left_children":[1,3,5,-1,-1,-1,-1],"loss_changes":[2.1044604E-1,1.2295449E-1,2.5569952E-1,0E0,0E0,0E0,0E0],"parents":[2147483647,0,0,1,1,2,2],"right_children":[2,4,6,-1,-1,-1,-1],"split_conditions":[1.2536652E0,-8.695578E-1,1.6805725E0,-0E0,1.7987965E-2,-9.192406E-3,3.3158862E-3],"split_indices":[370,60,348,0,0,0,0],"split_type":[0,0,0,0,0,0,0],"sum_hessian":[7E1,1.2E1,5.8E1,3E0,9E0,2.9E1,2.9E1],"tree_param":{"num_deleted":"0","num_feature":"1024","num_nodes":"7","size_leaf_vector":"1"}},{"base_weights":[-0E0,7.953393E-2,-3.0849423E-2,1.6219707E-2,-0E0,-1.4106057E-2,-0E0],"categories":[],"categories_nodes":[],"categories_segments":[],"categories_sizes":[],"default_left":[0,0,0,0,0,0,0],"id":69,"left_children":[1,3,5,-1,-1,-1,-1],"loss_changes":[1.8848383E-1,1.8652165E-1,2.0256922E-1,0E0,0E0,0E0,0E0],"parents":[2147483647,0,0,1,1,2,2],"right_children":[2,4,6,-1,-1,-1,-1],"split_conditions":[-2.9078674E-1,1.0056279E0,5.099932E-1,1.6219707E-2,-0E0,-1.4106057E-2,-0E0],"split_indices":[868,544,863,0,0,0,0],"split_type":[0,0,0,0,0,0,0],"sum_hessian":[7E1,2.2E1,4.8E1,1.2E1,1E1,1.2E1,3.6E1],"tree_param":{"num_deleted":"0","num_feature":"1024","num_nodes":"7","size_leaf_vector":"1"}},{"base_weights":[-0E0,-2.6619194E-2,8.4043115E-2,-1.0520981E-2,1.682482E-3,1.6528543E-2,-1.4232697E-3],"categories":[],"categories_nodes":[],"categories_segments":[],"categories_sizes":[],"default_left":[0,0,0,0,0,0,0],"id":70,"left_children":[1,3,5,-1,-1,-1,-1],"loss_changes":[1.7422524E-1,2.2091357E-1,2.3239361E-1,0E0,0E0,0E0,0E0],"parents":[2147483647,0,0,1,1,2,2],"right_children":[2,4,6,-1,-1,-1,-1],"split_conditions":[7.160115E-1,5.355351E-1,-3.7315946E-2,-1.0520981E-2,1.682482E-3,1.6528543E-2,-1.4232697E-3],"split_indices":[26,503,580,0,0,0,0],"split_type":[0,0,0,0,0,0,0],"sum_hessian":[7E1,5.1E1,1.9E1,2.2E1,2.9E1,1.3E1,6E0],"tree_param":{"num_deleted":"0","num_feature":"1024","num_nodes":"7","size_leaf_vector":"1"}},{"base_weights":[-0E0,-2.9138226E-2,7.366649E-2,1.462024E-3,-9.27102E-3,1.52830575E-2,-6.887899E-4],"categories":[],"categories_nodes":[],"categories_segments":[],"categories_sizes":[],"default_left":[0,0,0,0,0,0,0],"id":71,"left_children":[1,3,5,-1,-1,-1,-1],"loss_changes":[1.6328017E-1,1.7464057E-1,2.1698047E-1,0E0,0E0,0E0,0E0],"parents":[2147483647,0,0,1,1,2,2],"right_children":[2,4,6,-1,-1,-1,-1],"split_conditions":[6.6758215E-1,-9.612623E-1,3.4930065E-1,1.462024E-3,-9.27102E-3,1.52830575E-2,-6.887899E-4],"split_indices":[535,567,724,0,0,0,0],"split_type":[0,0,0,0,0,0,0],"sum_hessian":[7E1,4.8E1,2.2E1,2.4E1,2.4E1,1.4E1,8E0],"tree_param":{"num_deleted":"0","num_feature":"1024","num_nodes":"7","size_leaf_vector":"1"}},{"base_weights":[-0E0,-7.405045E-2,3.0346477E-2,-1.4392532E-2,-0E0,1.4928661E-2,-0E0],"categories":[],"categories_nodes":[],"categories_segments":[],"categories_sizes":[],"default_left":[0,0,0,0,0,0,0],"id":72,"left_children":[1,3,5,-1,-1,-1,-1],"loss_changes":[1.4979188E-1,1.16058074E-1,2.3023346E-1,0E0,0E0,0E0,0E0],"parents":[2147483647,0,0,1,1,2,2],"right_children":[2,4,6,-1,-1,-1,-1],"split_conditions":[-9.2305464E-1,7.2125095E-1,4.2130992E-1,-1.4392532E-2,-0E0,1.4928661E-2,-0E0],"split_indices":[398,66,665,0,0,0,0],"split_type":[0,0,0,0,0,0,0],"sum_hessian":[7E1,1.8E1,5.2E1,1E1,8E0,1.2E1,4E1],"tree_param":{"num_deleted":"0","num_feature":"1024","num_nodes":"7","size_leaf_vector":"1"}},{"base_weights":[-0E0,-8.808898E-3,1.719619E-2,5.5818055E-3,-3.7882943E-3],"categories":[],"categories_nodes":[],"categories_segments":[],"categories_sizes":[],"default_left":[0,0,0,0,0],"id":73,"left_children":[1,3,-1,-1,-1],"loss_changes":[1.3822919E-1,1.1704102E-1,0E0,0E0,0E0],"parents":[2147483647,0,0,1,1],"right_children":[2,4,-1,-1,-1],"split_conditions":[1.2511891E-1,1.2092893E-1,1.719619E-2,5.5818055E-3,-3.7882943E-3],"split_indices":[466,1005,0,0,0],"split_type":[0,0,0,0,0],"sum_hessian":[7E1,6.6E1,4E0,1.5E1,5.1E1],"tree_param":{"num_deleted":"0","num_feature":"1024","num_nodes":"5","size_leaf_vector":"1"}},{"base_weights":[-0E0,-1.7634379E-2,9.2052214E-2,-4.99836E-3,4.5538596E-3,-0E0,1.449835E-2],"categories":[],"categories_nodes":[],"categories_segments":[],"categories_sizes":[],"default_left":[0,0,0,0,0,0,0],"id":74,"left_children":[1,3,5,-1,-1,-1,-1],"loss_changes":[1.3227458E-1,1.20867394E-1,8.5298315E-2,0E0,0E0,0E0,0E0],"parents":[2147483647,0,0,1,1,2,2],"right_children":[2,4,6,-1,-1,-1,-1],"split_conditions":[7.90662E-2,8.492923E-1,2.025716E-2,-4.99836E-3,4.5538596E-3,-0E0,1.449835E-2],"split_indices":[380,147,240,0,0,0,0],"split_type":[0,0,0,0,0,0,0],"sum_hessian":[7E1,5.7E1,1.3E1,4.3E1,1.4E1,4E0,9E0],"tree_param":{"num_deleted":"0","num_feature":"1024","num_nodes":"7","size_leaf_vector":"1"}},{"base_weights":[-0E0,6.661138E-2,-2.3893466E-2,-0E0,1.3572191E-2,-9.46566E-3,8.736734E-4],"categories":[],"categories_nodes":[],"categories_segments":[],"categories_sizes":[],"default_left":[0,0,0,0,0,0,0],"id":75,"left_children":[1,3,5,-1,-1,-1,-1],"loss_changes":[1.2365658E-1,1.3485834E-1,1.5766968E-1,0E0,0E0,0E0,0E0],"parents":[2147483647,0,0,1,1,2,2],"right_children":[2,4,6,-1,-1,-1,-1],"split_conditions":[1.3907186E0,-3.5353476E-1,1.1905999E0,-0E0,1.3572191E-2,-9.46566E-3,8.736734E-4],"split_indices":[1011,267,85,0,0,0,0],"split_type":[0,0,0,0,0,0,0],"sum_hessian":[7E1,2.1E1,4.9E1,9E0,1.2E1,2E1,2.9E1],"tree_param":{"num_deleted":"0","num_feature":"1024","num_nodes":"7","size_leaf_vector":"1"}},{"base_weights":[-0E0,5.187301E-2,-2.8890586E-2,1.1227725E-2,-2.2213215E-3,-1.0205581E-2,-0E0],"categories":[],"categories_nodes":[],"categories_segments":[],"categories_sizes":[],"default_left":[0,0,0,0,0,0,0],"id":76,"left_children":[1,3,5,-1,-1,-1,-1],"loss_changes":[1.1216136E-1,1.7382002E-1,1.2596521E-1,0E0,0E0,0E0,0E0],"parents":[2147483647,0,0,1,1,2,2],"right_children":[2,4,6,-1,-1,-1,-1],"split_conditions":[-1.1885522E-1,-5.258462E-1,-7.9549694E-1,1.1227725E-2,-2.2213215E-3,-1.0205581E-2,-0E0],"split_indices":[378,44,398,0,0,0,0],"split_type":[0,0,0,0,0,0,0],"sum_hessian":[7E1,2.8E1,4.2E1,1.9E1,9E0,1.5E1,2.7E1],"tree_param":{"num_deleted":"0","num_feature":"1024","num_nodes":"7","size_leaf_vector":"1"}},{"base_weights":[-0E0,6.0559094E-2,-2.2055343E-2,-0E0,1.1099043E-2,-0E0,-1.3422159E-2],"categories":[],"categories_nodes":[],"categories_segments":[],"categories_sizes":[],"default_left":[0,0,0,0,0,0,0],"id":77,"left_children":[1,3,5,-1,-1,-1,-1],"loss_changes":[1.0292788E-1,7.513677E-2,1.2905249E-1,0E0,0E0,0E0,0E0],"parents":[2147483647,0,0,1,1,2,2],"right_children":[2,4,6,-1,-1,-1,-1],"split_conditions":[-3.9535528E-1,-1.7987086E-1,4.133635E-1,-0E0,1.1099043E-2,-0E0,-1.3422159E-2],"split_indices":[718,860,423,0,0,0,0],"split_type":[0,0,0,0,0,0,0],"sum_hessian":[7E1,2.1E1,4.9E1,9E0,1.2E1,4.1E1,8E0],"tree_param":{"num_deleted":"0","num_feature":"1024","num_nodes":"7","size_leaf_vector":"1"}},{"base_weights":[-0E0,7.969287E-2,-1.3875051E-2,-0E0,1.16483215E-2,-5.9726234E-3,1.526215E-3],"categories":[],"categories_nodes":[],"categories_segments":[],"categories_sizes":[],"default_left":[0,0,0,0,0,0,0],"id":78,"left_children":[1,3,5,-1,-1,-1,-1],"loss_changes":[9.064917E-2,4.951229E-2,1.0084237E-1,0E0,0E0,0E0,0E0],"parents":[2147483647,0,0,1,1,2,2],"right_children":[2,4,6,-1,-1,-1,-1],"split_conditions":[1.2536652E0,-8.695578E-1,1.6805725E0,-0E0,1.16483215E-2,-5.9726234E-3,1.526215E-3],"split_indices":[370,60,348,0,0,0,0],"split_type":[0,0,0,0,0,0,0],"sum_hessian":[7E1,1.2E1,5.8E1,3E0,9E0,2.9E1,2.9E1],"tree_param":{"num_deleted":"0","num_feature":"1024","num_nodes":"7","size_leaf_vector":"1"}},{"base_weights":[-0E0,-2.6815433E-2,4.2446144E-2,-6.286294E-3,3.1551868E-3,1.1614745E-2,-0E0],"categories":[],"categories_nodes":[],"categories_segments":[],"categories_sizes":[],"default_left":[0,0,0,0,0,0,0],"id":79,"left_children":[1,3,5,-1,-1,-1,-1],"loss_changes":[8.407333E-2,1.0185909E-1,1.00186534E-1,0E0,0E0,0E0,0E0],"parents":[2147483647,0,0,1,1,2,2],"right_children":[2,4,6,-1,-1,-1,-1],"split_conditions":[-1.3239955E0,-8.703313E-2,-4.5080185E-1,-6.286294E-3,3.1551868E-3,1.1614745E-2,-0E0],"split_indices":[670,598,961,0,0,0,0],"split_type":[0,0,0,0,0,0,0],"sum_hessian":[7E1,4E1,3E1,3E1,1E1,1.1E1,1.9E1],"tree_param":{"num_deleted":"0","num_feature":"1024","num_nodes":"7","size_leaf_vector":"1"}},{"base_weights":[-0E0,8.109334E-2,-1.014254E-2,-0E0,9.9454E-3,-4.2869053E-3,2.3859332E-3],"categories":[],"categories_nodes":[],"categories_segments":[],"categories_sizes":[],"default_left":[0,0,0,0,0,0,0],"id":80,"left_children":[1,3,5,-1,-1,-1,-1],"loss_changes":[7.527307E-2,1.50249675E-2,7.733842E-2,0E0,0E0,0E0,0E0],"parents":[2147483647,0,0,1,1,2,2],"right_children":[2,4,6,-1,-1,-1,-1],"split_conditions":[-1.8709565E0,-1.1634643E0,1.0040356E0,-0E0,9.9454E-3,-4.2869053E-3,2.3859332E-3],"split_indices":[558,4,374,0,0,0,0],"split_type":[0,0,0,0,0,0,0],"sum_hessian":[7E1,1E1,6E1,2E0,8E0,3.8E1,2.2E1],"tree_param":{"num_deleted":"0","num_feature":"1024","num_nodes":"7","size_leaf_vector":"1"}},{"base_weights":[-0E0,5.2109525E-2,-1.7205086E-2,-0E0,1.0748543E-2,-7.166249E-3,3.9806563E-4],"categories":[],"categories_nodes":[],"categories_segments":[],"categories_sizes":[],"default_left":[0,0,0,0,0,0,0],"id":81,"left_children":[1,3,5,-1,-1,-1,-1],"loss_changes":[7.303389E-2,8.603281E-2,9.109272E-2,0E0,0E0,0E0,0E0],"parents":[2147483647,0,0,1,1,2,2],"right_children":[2,4,6,-1,-1,-1,-1],"split_conditions":[1.3907186E0,-3.5353476E-1,1.1905999E0,-0E0,1.0748543E-2,-7.166249E-3,3.9806563E-4],"split_indices":[1011,267,85,0,0,0,0],"split_type":[0,0,0,0,0,0,0],"sum_hessian":[7E1,2.1E1,4.9E1,9E0,1.2E1,2E1,2.9E1],"tree_param":{"num_deleted":"0","num_feature":"1024","num_nodes":"7","size_leaf_vector":"1"}},{"base_weights":[-0E0,4.992927E-2,-1.6201582E-2,-0E0,9.196527E-3,-0E0,-1.0778987E-2],"categories":[],"categories_nodes":[],"categories_segments":[],"categories_sizes":[],"default_left":[0,0,0,0,0,0,0],"id":82,"left_children":[1,3,5,-1,-1,-1,-1],"loss_changes":[6.659135E-2,5.21221E-2,8.576525E-2,0E0,0E0,0E0,0E0],"parents":[2147483647,0,0,1,1,2,2],"right_children":[2,4,6,-1,-1,-1,-1],"split_conditions":[-3.9535528E-1,-1.7987086E-1,4.133635E-1,-0E0,9.196527E-3,-0E0,-1.0778987E-2],"split_indices":[718,860,423,0,0,0,0],"split_type":[0,0,0,0,0,0,0],"sum_hessian":[7E1,2.1E1,4.9E1,9E0,1.2E1,4.1E1,8E0],"tree_param":{"num_deleted":"0","num_feature":"1024","num_nodes":"7","size_leaf_vector":"1"}},{"base_weights":[-0E0,-1.4509899E-2,5.1006887E-2,-6.393133E-3,6.481189E-4,9.499778E-3,-0E0],"categories":[],"categories_nodes":[],"categories_segments":[],"categories_sizes":[],"default_left":[0,0,0,0,0,0,0],"id":83,"left_children":[1,3,5,-1,-1,-1,-1],"loss_changes":[6.1575864E-2,8.235884E-2,8.012318E-2,0E0,0E0,0E0,0E0],"parents":[2147483647,0,0,1,1,2,2],"right_children":[2,4,6,-1,-1,-1,-1],"split_conditions":[7.160115E-1,5.355351E-1,2.6521936E-1,-6.393133E-3,6.481189E-4,9.499778E-3,-0E0],"split_indices":[26,503,580,0,0,0,0],"split_type":[0,0,0,0,0,0,0],"sum_hessian":[7E1,5.1E1,1.9E1,2.2E1,2.9E1,1.4E1,5E0],"tree_param":{"num_deleted":"0","num_feature":"1024","num_nodes":"7","size_leaf_vector":"1"}},{"base_weights":[-0E0,-9.888986E-3,5.9618503E-2,6.414848E-5,-5.913272E-3,-0E0,9.526418E-3],"categories":[],"categories_nodes":[],"categories_segments":[],"categories_sizes":[],"default_left":[0,0,0,0,0,0,0],"id":84,"left_children":[1,3,5,-1,-1,-1,-1],"loss_changes":[5.3606983E-2,5.908177E-2,3.8231056E-2,0E0,0E0,0E0,0E0],"parents":[2147483647,0,0,1,1,2,2],"right_children":[2,4,6,-1,-1,-1,-1],"split_conditions":[7.90662E-2,-7.279372E-2,2.025716E-2,6.414848E-5,-5.913272E-3,-0E0,9.526418E-3],"split_indices":[380,786,240,0,0,0,0],"split_type":[0,0,0,0,0,0,0],"sum_hessian":[7E1,5.7E1,1.3E1,3.9E1,1.8E1,4E0,9E0],"tree_param":{"num_deleted":"0","num_feature":"1024","num_nodes":"7","size_leaf_vector":"1"}},{"base_weights":[-0E0,3.604788E-2,-1.8186621E-2,7.99349E-3,-3.3016974E-4,-5.729514E-3,7.906963E-5],"categories":[],"categories_nodes":[],"categories_segments":[],"categories_sizes":[],"default_left":[0,0,0,0,0,0,0],"id":85,"left_children":[1,3,5,-1,-1,-1,-1],"loss_changes":[5.109132E-2,8.766624E-2,5.98173E-2,0E0,0E0,0E0,0E0],"parents":[2147483647,0,0,1,1,2,2],"right_children":[2,4,6,-1,-1,-1,-1],"split_conditions":[-1.1885522E-1,-5.258462E-1,-1.3239955E0,7.99349E-3,-3.3016974E-4,-5.729514E-3,7.906963E-5],"split_indices":[378,44,670,0,0,0,0],"split_type":[0,0,0,0,0,0,0],"sum_hessian":[7E1,2.8E1,4.2E1,1.9E1,9E0,2.2E1,2E1],"tree_param":{"num_deleted":"0","num_feature":"1024","num_nodes":"7","size_leaf_vector":"1"}},{"base_weights":[-0E0,-2.8394982E-2,2.3238104E-2,-5.999729E-3,-0E0,-3.459131E-4,7.389247E-3],"categories":[],"categories_nodes":[],"categories_segments":[],"categories_sizes":[],"default_left":[0,0,0,0,0,0,0],"id":86,"left_children":[1,3,5,-1,-1,-1,-1],"loss_changes":[4.5662973E-2,3.36224E-2,9.4170876E-2,0E0,0E0,0E0,0E0],"parents":[2147483647,0,0,1,1,2,2],"right_children":[2,4,6,-1,-1,-1,-1],"split_conditions":[-8.213356E-1,-7.10585E-1,3.2832786E-1,-5.999729E-3,-0E0,-3.459131E-4,7.389247E-3],"split_indices":[82,579,39,0,0,0,0],"split_type":[0,0,0,0,0,0,0],"sum_hessian":[7E1,2.7E1,4.3E1,1.5E1,1.2E1,2.2E1,2.1E1],"tree_param":{"num_deleted":"0","num_feature":"1024","num_nodes":"7","size_leaf_vector":"1"}},{"base_weights":[-0E0,-3.0382553E-2,2.081724E-2,-0E0,-7.3600262E-3,-4.9601437E-4,6.3421535E-3],"categories":[],"categories_nodes":[],"categories_segments":[],"categories_sizes":[],"default_left":[0,0,0,0,0,0,0],"id":87,"left_children":[1,3,5,-1,-1,-1,-1],"loss_changes":[4.3256804E-2,4.9590446E-2,7.935732E-2,0E0,0E0,0E0,0E0],"parents":[2147483647,0,0,1,1,2,2],"right_children":[2,4,6,-1,-1,-1,-1],"split_conditions":[-2.1897522E-1,-9.612623E-1,-8.0937934E-1,-0E0,-7.3600262E-3,-4.9601437E-4,6.3421535E-3],"split_indices":[333,567,82,0,0,0,0],"split_type":[0,0,0,0,0,0,0],"sum_hessian":[7E1,2.5E1,4.5E1,1.2E1,1.3E1,2.1E1,2.4E1],"tree_param":{"num_deleted":"0","num_feature":"1024","num_nodes":"7","size_leaf_vector":"1"}},{"base_weights":[-0E0,-1.04673775E-2,4.5629397E-2,-4.182722E-3,-0E0,-0E0,6.8102493E-3],"categories":[],"categories_nodes":[],"categories_segments":[],"categories_sizes":[],"default_left":[0,0,0,0,0,0,0],"id":88,"left_children":[1,3,5,-1,-1,-1,-1],"loss_changes":[3.8352557E-2,3.3283204E-2,2.1064777E-2,0E0,0E0,0E0,0E0],"parents":[2147483647,0,0,1,1,2,2],"right_children":[2,4,6,-1,-1,-1,-1],"split_conditions":[6.299307E-1,-7.742532E-1,-1.9018933E-1,-4.182722E-3,-0E0,-0E0,6.8102493E-3],"split_indices":[996,398,604,0,0,0,0],"split_type":[0,0,0,0,0,0,0],"sum_hessian":[7E1,5.5E1,1.5E1,2.2E1,3.3E1,4E0,1.1E1],"tree_param":{"num_deleted":"0","num_feature":"1024","num_nodes":"7","size_leaf_vector":"1"}},{"base_weights":[-0E0,-3.606738E-2,1.5441325E-2,-7.7442387E-3,-0E0,-6.974222E-4,4.636874E-3],"categories":[],"categories_nodes":[],"categories_segments":[],"categories_sizes":[],"default_left":[0,0,0,0,0,0,0],"id":89,"left_children":[1,3,5,-1,-1,-1,-1],"loss_changes":[3.6583643E-2,5.09007E-2,5.625484E-2,0E0,0E0,0E0,0E0],"parents":[2147483647,0,0,1,1,2,2],"right_children":[2,4,6,-1,-1,-1,-1],"split_conditions":[5.29366E-1,3.7291802E-2,-1.5637983E0,-7.7442387E-3,-0E0,-6.974222E-4,4.636874E-3],"split_indices":[863,353,473,0,0,0,0],"split_type":[0,0,0,0,0,0,0],"sum_hessian":[7E1,1.8E1,5.2E1,1.2E1,6E0,2.1E1,3.1E1],"tree_param":{"num_deleted":"0","num_feature":"1024","num_nodes":"7","size_leaf_vector":"1"}},{"base_weights":[-0E0,-4.191312E-3,8.577342E-3,4.6328313E-4,-3.1076085E-3],"categories":[],"categories_nodes":[],"categories_segments":[],"categories_sizes":[],"default_left":[0,0,0,0,0],"id":90,"left_children":[1,3,-1,-1,-1],"loss_changes":[3.4275062E-2,2.9069746E-2,0E0,0E0,0E0],"parents":[2147483647,0,0,1,1],"right_children":[2,4,-1,-1,-1],"split_conditions":[1.2511891E-1,-4.199867E-1,8.577342E-3,4.6328313E-4,-3.1076085E-3],"split_indices":[466,926,0,0,0],"split_type":[0,0,0,0,0],"sum_hessian":[7E1,6.6E1,4E0,3.6E1,3E1],"tree_param":{"num_deleted":"0","num_feature":"1024","num_nodes":"5","size_leaf_vector":"1"}},{"base_weights":[-0E0,3.3343628E-2,-1.2386274E-2,-0E0,1.134862E-2,-6.0940473E-3,-0E0],"categories":[],"categories_nodes":[],"categories_segments":[],"categories_sizes":[],"default_left":[0,0,0,0,0,0,0],"id":91,"left_children":[1,3,5,-1,-1,-1,-1],"loss_changes":[3.24563E-2,4.5819707E-2,3.8980912E-2,0E0,0E0,0E0,0E0],"parents":[2147483647,0,0,1,1,2,2],"right_children":[2,4,6,-1,-1,-1,-1],"split_conditions":[-2.9078674E-1,5.454729E-1,5.099932E-1,-0E0,1.134862E-2,-6.0940473E-3,-0E0],"split_indices":[868,257,863,0,0,0,0],"split_type":[0,0,0,0,0,0,0],"sum_hessian":[7E1,2.2E1,4.8E1,1.7E1,5E0,1.2E1,3.6E1],"tree_param":{"num_deleted":"0","num_feature":"1024","num_nodes":"7","size_leaf_vector":"1"}},{"base_weights":[-0E0,5.1527813E-2,-6.2009897E-3,-0E0,6.240893E-3,2.0893848E-4,-3.5745043E-3],"categories":[],"categories_nodes":[],"categories_segments":[],"categories_sizes":[],"default_left":[0,0,0,0,0,0,0],"id":92,"left_children":[1,3,5,-1,-1,-1,-1],"loss_changes":[3.0205075E-2,5.227722E-3,3.1683512E-2,0E0,0E0,0E0,0E0],"parents":[2147483647,0,0,1,1,2,2],"right_children":[2,4,6,-1,-1,-1,-1],"split_conditions":[-1.8709565E0,-1.1634643E0,-4.3936795E-1,-0E0,6.240893E-3,2.0893848E-4,-3.5745043E-3],"split_indices":[558,4,415,0,0,0,0],"split_type":[0,0,0,0,0,0,0],"sum_hessian":[7E1,1E1,6E1,2E0,8E0,3.4E1,2.6E1],"tree_param":{"num_deleted":"0","num_feature":"1024","num_nodes":"7","size_leaf_vector":"1"}},{"base_weights":[-0E0,3.2564107E-2,-1.0067452E-2,6.4160167E-3,-0E0,-4.9027074E-3,-0E0],"categories":[],"categories_nodes":[],"categories_segments":[],"categories_sizes":[],"default_left":[0,0,0,0,0,0,0],"id":93,"left_children":[1,3,5,-1,-1,-1,-1],"loss_changes":[2.7816057E-2,3.6890596E-2,3.94506E-2,0E0,0E0,0E0,0E0],"parents":[2147483647,0,0,1,1,2,2],"right_children":[2,4,6,-1,-1,-1,-1],"split_conditions":[1.3907186E0,1.9144772E-1,1.3488935E0,6.4160167E-3,-0E0,-4.9027074E-3,-0E0],"split_indices":[1011,700,744,0,0,0,0],"split_type":[0,0,0,0,0,0,0],"sum_hessian":[7E1,2.1E1,4.9E1,1.4E1,7E0,1.8E1,3.1E1],"tree_param":{"num_deleted":"0","num_feature":"1024","num_nodes":"7","size_leaf_vector":"1"}},{"base_weights":[-0E0,3.1674735E-2,-9.712993E-3,-0E0,5.766179E-3,-0E0,-7.07755E-3],"categories":[],"categories_nodes":[],"categories_segments":[],"categories_sizes":[],"default_left":[0,0,0,0,0,0,0],"id":94,"left_children":[1,3,5,-1,-1,-1,-1],"loss_changes":[2.624065E-2,1.9990318E-2,3.7908014E-2,0E0,0E0,0E0,0E0],"parents":[2147483647,0,0,1,1,2,2],"right_children":[2,4,6,-1,-1,-1,-1],"split_conditions":[-3.9535528E-1,-1.7987086E-1,4.133635E-1,-0E0,5.766179E-3,-0E0,-7.07755E-3],"split_indices":[718,860,423,0,0,0,0],"split_type":[0,0,0,0,0,0,0],"sum_hessian":[7E1,2.1E1,4.9E1,9E0,1.2E1,4.1E1,8E0],"tree_param":{"num_deleted":"0","num_feature":"1024","num_nodes":"7","size_leaf_vector":"1"}},{"base_weights":[-0E0,-6.185055E-3,4.024301E-2,-0E0,-3.6880306E-3,6.43257E-3,-0E0],"categories":[],"categories_nodes":[],"categories_segments":[],"categories_sizes":[],"default_left":[0,0,0,0,0,0,0],"id":95,"left_children":[1,3,5,-1,-1,-1,-1],"loss_changes":[2.4062907E-2,2.7043717E-2,1.7445805E-2,0E0,0E0,0E0,0E0],"parents":[2147483647,0,0,1,1,2,2],"right_children":[2,4,6,-1,-1,-1,-1],"split_conditions":[7.90662E-2,-8.041206E-1,7.3446757E-1,-0E0,-3.6880306E-3,6.43257E-3,-0E0],"split_indices":[380,431,229,0,0,0,0],"split_type":[0,0,0,0,0,0,0],"sum_hessian":[7E1,5.7E1,1.3E1,3.6E1,2.1E1,9E0,4E0],"tree_param":{"num_deleted":"0","num_feature":"1024","num_nodes":"7","size_leaf_vector":"1"}},{"base_weights":[-0E0,-3.8935996E-3,4.7015842E-2,4.352154E-4,-2.7688795E-3,-0E0,6.2036733E-3],"categories":[],"categories_nodes":[],"categories_segments":[],"categories_sizes":[],"default_left":[0,0,0,0,0,0,0],"id":96,"left_children":[1,3,5,-1,-1,-1,-1],"loss_changes":[2.1931997E-2,2.3795448E-2,4.015969E-3,0E0,0E0,0E0,0E0],"parents":[2147483647,0,0,1,1,2,2],"right_children":[2,4,6,-1,-1,-1,-1],"split_conditions":[3.8873142E-1,-2.4753414E-1,-1.137718E0,4.352154E-4,-2.7688795E-3,-0E0,6.2036733E-3],"split_indices":[153,937,44,0,0,0,0],"split_type":[0,0,0,0,0,0,0],"sum_hessian":[7E1,6.1E1,9E0,3E1,3.1E1,3E0,6E0],"tree_param":{"num_deleted":"0","num_feature":"1024","num_nodes":"7","size_leaf_vector":"1"}},{"base_weights":[-0E0,2.0400766E-2,-1.3562739E-2,4.618098E-3,-0E0,-4.6870452E-3,-0E0],"categories":[],"categories_nodes":[],"categories_segments":[],"categories_sizes":[],"default_left":[0,0,0,0,0,0,0],"id":97,"left_children":[1,3,5,-1,-1,-1,-1],"loss_changes":[2.1304939E-2,3.7475944E-2,3.6308214E-2,0E0,0E0,0E0,0E0],"parents":[2147483647,0,0,1,1,2,2],"right_children":[2,4,6,-1,-1,-1,-1],"split_conditions":[-7.445779E-1,-5.258462E-1,-7.471228E-1,4.618098E-3,-0E0,-4.6870452E-3,-0E0],"split_indices":[831,44,27,0,0,0,0],"split_type":[0,0,0,0,0,0,0],"sum_hessian":[7E1,3.5E1,3.5E1,2.4E1,1.1E1,1.9E1,1.6E1],"tree_param":{"num_deleted":"0","num_feature":"1024","num_nodes":"7","size_leaf_vector":"1"}},{"base_weights":[-0E0,-4.0799463E-3,4.032417E-2,-0E0,-3.377542E-3,-0E0,6.8090945E-3],"categories":[],"categories_nodes":[],"categories_segments":[],"categories_sizes":[],"default_left":[0,0,0,0,0,0,0],"id":98,"left_children":[1,3,5,-1,-1,-1,-1],"loss_changes":[1.968988E-2,2.0113973E-2,2.0709757E-2,0E0,0E0,0E0,0E0],"parents":[2147483647,0,0,1,1,2,2],"right_children":[2,4,6,-1,-1,-1,-1],"split_conditions":[1.3011481E-1,1.2252958E-1,-1.2868391E0,-0E0,-3.377542E-3,-0E0,6.8090945E-3],"split_indices":[121,718,222,0,0,0,0],"split_type":[0,0,0,0,0,0,0],"sum_hessian":[7E1,5.9E1,1.1E1,4.1E1,1.8E1,3E0,8E0],"tree_param":{"num_deleted":"0","num_feature":"1024","num_nodes":"7","size_leaf_vector":"1"}},{"base_weights":[-0E0,2.2295779E-2,-9.603208E-3,4.7752056E-3,-0E0,-3.1820324E-3,-0E0],"categories":[],"categories_nodes":[],"categories_segments":[],"categories_sizes":[],"default_left":[0,0,0,0,0,0,0],"id":99,"left_children":[1,3,5,-1,-1,-1,-1],"loss_changes":[1.8086817E-2,3.2577906E-2,2.190017E-2,0E0,0E0,0E0,0E0],"parents":[2147483647,0,0,1,1,2,2],"right_children":[2,4,6,-1,-1,-1,-1],"split_conditions":[8.367658E-1,-8.423461E-1,-1.0245285E0,4.7752056E-3,-0E0,-3.1820324E-3,-0E0],"split_indices":[587,161,839,0,0,0,0],"split_type":[0,0,0,0,0,0,0],"sum_hessian":[7E1,2.8E1,4.2E1,2E1,8E0,2.5E1,1.7E1],"tree_param":{"num_deleted":"0","num_feature":"1024","num_nodes":"7","size_leaf_vector":"1"}}]},"name":"gbtree"},"learner_model_param":{"base_score":"2.6014702E0","boost_from_average":"1","num_class":"0","num_feature":"1024","num_target":"1"},"objective":{"name":"reg:squarederror","reg_loss_param":{"scale_pos_weight":"1"}}},"version":[2,1,3]}